%YAML:1.0
opencv_ml_svm:
   format: 3
   svmType: C_SVC
   kernel:
      type: LINEAR
   C: 30.
   term_criteria: { epsilon:1., iterations:10 }
   var_count: 2560
   class_count: 2
   class_labels: !!opencv-matrix
      rows: 2
      cols: 1
      dt: i
      data: [ 0, 1 ]
   sv_total: 1
   support_vectors:
      - [ 2.25108142e-05, -8.28746397e-06, 2.63897073e-05,
          4.73476721e-05, -1.27335588e-04, -4.33265741e-05,
          -5.70076954e-05, 3.52207871e-06, 6.47217676e-05,
          5.81683125e-05, -1.75935711e-05, -1.09564944e-05,
          -6.04672387e-05, -2.18605946e-05, -2.49241930e-05,
          2.11314909e-05, -6.61753947e-05, -1.39646818e-05,
          -8.29059991e-06, 4.95856293e-05, -2.06836739e-06,
          -1.10842993e-05, 2.24796872e-06, 4.19063690e-05,
          7.17993389e-05, 1.02197582e-05, 4.84839875e-05,
          -2.14993288e-05, -9.36395663e-05, -4.94229862e-05,
          2.66399693e-05, 8.09509220e-05, 7.05227649e-05,
          -4.91727224e-05, -3.26090194e-05, -6.05624009e-05,
          -1.20050216e-04, 1.50281176e-05, 9.15194978e-05,
          8.99226579e-05, 3.52654970e-05, 7.01139579e-05, 2.71944882e-05,
          1.30807703e-05, -6.42842206e-05, 1.13742763e-05,
          4.38990028e-05, 2.43531849e-06, 9.96720992e-05, 4.42030432e-05,
          1.11268535e-04, 1.49156931e-05, -1.25284874e-04,
          4.34755930e-05, 3.13114069e-05, 7.24357596e-05, 5.16390683e-05,
          1.14132956e-06, 3.70064918e-05, 1.12543103e-05,
          -1.20204451e-04, -5.40653491e-05, 2.62172434e-05,
          9.81132544e-05, 1.09672164e-05, -1.11489144e-05,
          -3.72914565e-06, -6.76008640e-05, -7.12299079e-05,
          2.49639754e-07, -2.85449914e-05, -2.92454424e-05,
          8.87237275e-06, 9.69187749e-05, 2.43541908e-05, 6.70876470e-05,
          4.51811466e-05, 3.68978544e-05, -1.01380610e-04,
          -1.11763031e-04, 3.31800084e-06, 1.13242029e-04,
          8.08468685e-05, 1.07168344e-04, -1.17757307e-04,
          -5.34773026e-05, -2.96155176e-05, -5.59299697e-05,
          7.78748563e-06, 7.66198646e-05, 9.55137511e-05, 6.72271781e-05,
          -1.55633679e-04, -7.84133008e-05, 2.37993703e-07,
          3.36048811e-06, -1.00859485e-04, -1.04042874e-05,
          -6.25077109e-06, -2.97182652e-07, -3.46385896e-05,
          1.03970160e-05, -4.77369431e-05, -9.11833049e-05,
          -1.02422498e-04, -3.38539644e-06, -3.93889786e-05,
          3.72120703e-05, 3.59119294e-05, -1.59904321e-05,
          -7.45759025e-05, -2.85551669e-05, 1.83659995e-05,
          1.24529356e-06, -8.44962196e-05, -1.68993283e-05,
          -3.67190842e-05, -6.14091550e-05, -1.94953245e-05,
          7.80533737e-05, -5.73864781e-05, 8.27210170e-06,
          -4.92855324e-05, -4.54426117e-06, -1.17928124e-04,
          -3.54560289e-05, 5.92424585e-05, 1.45280401e-05,
          -2.16470489e-05, -3.54156437e-05, -8.49040662e-05,
          -6.72988172e-05, -2.17958495e-06, 2.42212755e-05,
          4.68807866e-06, -2.13645471e-05, 7.08377920e-05,
          5.93295545e-06, -4.38056886e-05, -3.77258730e-05,
          -6.48728528e-05, 5.03617321e-06, 1.33694393e-05,
          1.71715710e-05, 2.56158455e-05, 1.06096459e-05,
          -2.88733754e-05, -2.33954484e-06, 4.47767979e-06,
          5.73108191e-05, 9.99000622e-05, 2.03116506e-05, 1.00828700e-04,
          -8.57301438e-06, 1.36199969e-05, -2.53274138e-05,
          -6.66064007e-05, 8.21513604e-05, 7.18087249e-05,
          6.54497344e-05, 1.25537417e-05, -1.38674050e-05,
          -1.11716545e-04, 1.72837701e-06, -6.68424354e-06,
          -3.73531402e-05, 5.87723771e-05, 2.28625941e-05,
          2.10749931e-05, -1.33582671e-05, -2.46352356e-05,
          -1.34322599e-05, -1.43664909e-06, 9.37305686e-06,
          2.74385798e-06, -3.08510498e-05, 6.62722305e-05,
          5.50019934e-07, -2.22201234e-05, -9.80553523e-05,
          -5.65613482e-05, -1.42677563e-05, 3.01409036e-05,
          2.86543218e-05, 1.23175370e-04, -4.52163622e-05,
          -4.39003998e-05, 2.21515002e-05, 1.44612723e-05,
          5.77766914e-05, 5.96434838e-05, 1.51633594e-05, 5.58795182e-05,
          4.25597173e-05, 6.91869104e-07, -1.06804560e-04,
          -3.17349914e-05, 3.10500291e-05, -4.93672851e-05,
          -2.66589595e-05, -2.85922451e-05, -1.14852510e-05,
          -9.42500537e-06, -2.42354090e-05, 1.23361906e-05,
          -2.23419156e-05, -8.37411135e-05, -5.81588902e-05,
          1.09589717e-04, 4.98296067e-05, 2.45531737e-05,
          -6.45104446e-05, -8.02903232e-05, -4.57568349e-05,
          -6.42300365e-05, -2.85523183e-05, 1.25946593e-04,
          4.00588578e-05, -3.44788059e-05, 6.23987144e-05,
          7.54213615e-05, -1.01178521e-05, -1.49138677e-05,
          -7.16520153e-05, 2.63255024e-05, 2.32688744e-05,
          -2.51287966e-05, -1.07325752e-04, -8.94363529e-06,
          7.07474392e-05, 2.23337393e-05, 5.24577808e-05,
          -2.45738465e-05, 3.00632746e-06, -2.94859674e-05,
          3.66366985e-05, 5.82206485e-05, 2.92051864e-05, 1.80865700e-05,
          -2.59768676e-05, -7.47712102e-06, -2.76256178e-05,
          3.45824592e-05, 7.64528959e-05, -2.65715225e-05,
          -1.03731727e-04, -1.36021226e-05, 4.61430427e-05,
          6.45133623e-05, 5.56996274e-05, 3.04539044e-05, 5.04170057e-05,
          6.78253709e-05, -5.74661099e-05, -3.87711407e-05,
          5.89182400e-06, 2.04454791e-05, -3.06358902e-06,
          1.12008114e-04, 5.32665181e-05, -3.15768229e-05,
          -4.41930824e-05, -5.10792161e-05, -3.14103067e-06,
          -5.24443749e-05, 9.34726049e-05, 6.27784393e-05,
          4.72299726e-05, -1.41868659e-05, -4.83123840e-05,
          -1.07634887e-05, -6.48854621e-05, -1.40479949e-06,
          4.89656595e-05, -6.88486125e-06, -6.59573197e-05,
          1.20154000e-05, 3.63284635e-05, -5.97809340e-05,
          -5.77691972e-05, -5.70448083e-06, 2.60552497e-06,
          -1.69459254e-05, -4.34925823e-05, -4.10343528e-05,
          2.40061536e-06, 9.37704590e-06, -4.53787834e-05,
          1.42848303e-05, 5.70659104e-05, 8.93106771e-05, 1.28358733e-05,
          -4.55658956e-05, -4.95340537e-05, -1.52302791e-05,
          -6.29065835e-05, 1.70578478e-05, 1.52165512e-05,
          -6.87535721e-05, 4.80630115e-05, -3.59187725e-05,
          -7.51265361e-06, -7.23234043e-05, -1.10480942e-04,
          8.31854341e-05, -4.01386606e-05, -4.32906818e-05,
          6.85789928e-05, -7.11638640e-05, -7.29064268e-05,
          -7.05615676e-05, 2.96253074e-05, 5.80721144e-06,
          2.91863034e-05, 1.69938539e-05, -1.65248257e-05,
          -4.99434645e-05, -7.02181860e-05, -1.14158847e-05,
          1.51857039e-05, -1.96971978e-05, 7.88301404e-05,
          7.16547875e-05, 1.52557741e-05, -6.26785986e-05,
          -2.68471904e-05, 5.97852559e-05, 2.43268514e-05,
          1.38811229e-05, 8.31365287e-06, 4.22256562e-05, 9.06158130e-06,
          -7.89498881e-05, 1.33159256e-05, -3.49730872e-05,
          -3.08123090e-05, 7.76337838e-05, 3.38112204e-06,
          4.56257931e-06, 7.34413843e-05, -4.34871436e-05,
          2.37288350e-06, -4.25751023e-05, 4.94841015e-06,
          1.11289184e-04, 7.69608087e-05, -5.77441733e-06,
          3.87790678e-05, -1.92075840e-05, -4.14316346e-05,
          -2.38125122e-05, 5.01615505e-05, -3.13722230e-05,
          2.74835529e-05, 8.24695162e-05, 1.44428827e-06,
          -5.13125742e-05, 8.29065266e-06, 1.78097198e-05,
          6.87299325e-05, 7.11007597e-05, 1.11118774e-04, 5.86869610e-05,
          -2.59928838e-05, -5.16507534e-05, 2.98657087e-05,
          1.81525593e-06, -9.37111679e-07, 1.15059309e-04,
          1.16536299e-04, 3.74613046e-05, 1.03534594e-05,
          -3.92707225e-05, 4.77399626e-05, 1.90411390e-06,
          1.13110364e-05, 8.72443998e-05, 7.07218132e-05, 1.19408842e-05,
          -2.01886110e-06, 3.87753971e-05, 3.96023788e-05,
          1.68467614e-05, -1.51834965e-05, 9.10251947e-06,
          -3.01785713e-05, -3.49024413e-05, -3.85575258e-05,
          5.39401262e-05, 6.35928300e-05, 3.47564528e-05, 3.60134777e-06,
          -4.62046955e-05, -8.45112590e-05, -2.70090022e-05,
          -7.89782632e-07, 4.30770742e-05, -1.24381120e-06,
          -2.64219925e-05, 1.54130939e-05, -1.61314892e-04,
          -7.31863547e-05, -2.00701325e-05, -4.95109271e-05,
          -3.20751569e-05, 5.82167850e-05, 2.70698783e-05,
          -2.26401698e-05, -5.25806718e-05, -5.36114785e-05,
          -8.24066865e-06, -1.74009820e-05, -3.78262521e-05,
          -1.20007280e-05, 2.64733753e-05, 4.38570351e-05,
          3.52704119e-05, 1.23217649e-06, 1.25205392e-04, 1.35347829e-04,
          9.83978316e-05, -3.88659791e-05, -3.43919746e-05,
          -2.81596676e-05, 2.96545895e-05, -2.67069590e-05,
          2.63444890e-05, 6.29460264e-05, -2.76839387e-06,
          5.58804550e-06, 2.11139777e-05, 6.04053321e-06,
          -6.22072985e-05, -2.25835738e-05, 2.41747766e-05,
          -2.86732993e-05, -8.49532735e-05, 1.41464814e-04,
          3.72364811e-05, -6.99240845e-05, 1.65070978e-05,
          -7.84438525e-05, -6.73998920e-06, 1.54225036e-05,
          -6.14689416e-05, 3.54890335e-06, -2.49358118e-06,
          4.66150159e-05, 7.33541601e-05, 3.74635856e-05,
          -1.25275324e-06, 6.81514211e-06, 3.09629977e-05,
          3.31855586e-06, 2.34720155e-05, 1.04951541e-05, 3.92270158e-05,
          3.52960415e-05, -2.45533793e-05, -1.06507840e-04,
          -5.77061437e-05, 1.01171478e-04, 4.42106057e-06,
          -2.01614421e-05, 2.55767591e-05, 2.39265155e-05,
          4.15783798e-05, 4.02570186e-05, -8.39228305e-05,
          5.40498258e-05, 7.99737052e-07, 1.54698637e-06, 2.76471001e-05,
          4.35280890e-05, -1.56176066e-05, -4.05632045e-06,
          -5.21581860e-05, 1.90798582e-05, -1.58485436e-05,
          -4.21432960e-05, 4.36831651e-05, -3.30321527e-05,
          -9.75127696e-05, -4.65216217e-05, 2.33148785e-05,
          3.41815430e-05, 6.55119657e-05, 2.95032005e-05, 5.77321807e-05,
          -7.83447103e-06, -6.21065701e-05, -8.21411304e-05,
          -4.24681093e-06, 9.76863448e-05, 7.32319968e-05,
          -1.26757470e-06, 1.27588669e-06, -1.08451924e-04,
          -2.06703662e-05, 1.40167895e-05, 2.07916546e-05,
          5.12475563e-05, 1.79746239e-05, 3.56451028e-06, 7.18386364e-05,
          3.89418747e-05, -6.99016091e-05, -7.64661818e-05,
          -4.40006443e-05, 3.05429312e-05, -2.48925626e-05,
          -5.06492552e-06, -6.91373716e-05, -1.43495708e-04,
          2.40248282e-05, 5.86446949e-05, 4.24308018e-05,
          -2.50562080e-05, -7.99625850e-05, 1.09560024e-05,
          2.66942643e-05, -8.61137887e-05, 3.92392867e-05,
          2.41899379e-05, -2.15258915e-05, -1.36287999e-04,
          -1.06710977e-05, 8.50185388e-05, -8.98678336e-05,
          -6.49713766e-05, 4.64619116e-05, 6.50919958e-07,
          -2.19539706e-05, -5.08328740e-05, 2.46560444e-06,
          7.43203964e-06, -5.16263535e-05, 5.20238427e-06,
          3.01687196e-05, -5.61726893e-06, -2.28717308e-05,
          -2.96395065e-05, -1.96568144e-05, 4.24678401e-05,
          4.26068982e-06, -3.07737391e-05, 8.99386650e-05,
          3.50708106e-05, 3.66049499e-05, 4.65009180e-06,
          -8.00214984e-05, 7.17223472e-08, 1.97274931e-05,
          -2.52666305e-05, 6.00548810e-05, 3.49103248e-05,
          -5.32496197e-05, -7.82227289e-05, 2.04084863e-05,
          8.87548304e-05, -4.32694287e-05, 2.08264246e-05,
          8.70483200e-05, 8.09166304e-05, 1.82766271e-05,
          -2.34305426e-05, 1.13766473e-05, -7.27503066e-05,
          3.66781751e-05, 7.95859341e-06, 1.22171787e-05, 4.62453926e-07,
          -4.48960564e-05, -1.02808255e-04, -5.37666347e-05,
          1.72909859e-05, 6.20894425e-05, -8.21501817e-05,
          -4.63589495e-05, -1.11484906e-05, 1.07289750e-04,
          9.81296107e-05, -2.85427950e-06, 9.55696669e-05,
          2.19907488e-05, 6.06854228e-05, 4.10716893e-05,
          -2.83103236e-06, -1.77706952e-05, -6.44086731e-06,
          -7.23069570e-06, -7.05001003e-05, -1.08204440e-04,
          -3.18880120e-06, 6.86939311e-05, 5.79428015e-05,
          -6.50411239e-05, 1.49719270e-07, 5.55669758e-05,
          -2.89253730e-05, 7.85161537e-05, -3.11672811e-05,
          -3.34984834e-05, -2.99151125e-05, -1.29262946e-04,
          -5.02703006e-05, 6.88948421e-05, 1.29121996e-04,
          -1.52802677e-05, -6.62681923e-05, 2.07509947e-05,
          8.31870639e-05, 5.25505966e-05, 3.99193814e-05, 1.03910770e-05,
          4.65538797e-05, 3.57695399e-06, 7.87809995e-07, 6.92764224e-05,
          7.91971834e-05, 8.83497269e-05, 5.92667493e-06,
          -2.81171111e-07, -7.90671402e-05, 7.22546683e-05,
          -1.74599827e-05, 3.44589826e-05, -2.71275931e-05,
          -1.07214262e-04, -1.88744507e-05, 1.26135754e-04,
          5.53055288e-05, 4.87603065e-05, -6.11462212e-07,
          2.69606735e-05, 7.33210481e-06, -8.45376053e-05,
          -4.08747546e-05, 8.72950914e-05, 8.28587363e-05,
          8.95412013e-05, 5.99121413e-05, 1.45478725e-05,
          -1.43272307e-04, -1.62721830e-04, 7.92066476e-06,
          8.35782339e-06, 1.78968949e-05, 1.21325756e-05,
          -1.10960886e-04, 5.24020252e-05, 3.94947019e-05,
          2.86715954e-06, 3.54580734e-05, 1.99550668e-05, 3.85986232e-06,
          -1.40308975e-05, -5.49420074e-05, -1.84667201e-07,
          1.93595570e-05, 6.14367746e-05, 3.98703596e-05, 1.74525248e-05,
          -2.25262738e-05, 9.36146753e-05, -3.54449912e-05,
          -6.99388911e-05, 2.39040655e-05, 5.65567680e-05,
          -4.08321939e-05, 1.29417158e-05, 5.75148224e-05,
          8.13614315e-05, 1.43923156e-04, 2.10870785e-05,
          -1.86376710e-04, -1.26945757e-04, -3.64206353e-05,
          -4.79778464e-05, -1.63264685e-05, -2.00255872e-05,
          -2.66335046e-05, 7.75876324e-05, 1.02080376e-04,
          6.17337209e-05, -9.76506180e-06, -5.29749595e-05,
          -1.66518148e-05, 1.15103365e-04, 4.59181229e-06,
          -7.60451985e-06, 1.40334369e-05, -6.39793725e-05,
          1.68003244e-05, -1.56037913e-05, 2.42672177e-05,
          7.56118388e-05, -6.44607935e-05, -7.46999722e-05,
          9.99916010e-05, 5.48605840e-06, 2.78366533e-05, 5.71946293e-05,
          2.56041494e-05, 3.79377525e-05, 2.98120113e-07,
          -6.39371956e-06, -8.95426347e-05, -6.44026441e-05,
          -4.08327651e-05, -5.66581366e-05, -2.31944341e-05,
          6.20349965e-05, -4.23827441e-05, 7.53771928e-06,
          5.08235134e-05, 6.25008615e-05, -4.40533477e-05,
          -1.01065525e-04, -3.37788515e-05, 1.19877623e-04,
          3.01657929e-05, -4.31576882e-05, -8.37285843e-05,
          -6.74699768e-05, -6.32567526e-06, -3.10967189e-05,
          -4.50461048e-05, -2.95946120e-05, -2.25672266e-05,
          1.48153031e-05, 9.90724875e-05, 2.34368617e-05, 1.15557814e-05,
          4.29021202e-05, -4.04504972e-05, -3.81062309e-05,
          -1.08704517e-04, -6.59950019e-05, -3.51458912e-05,
          9.13662006e-06, 8.13458610e-05, 3.79366829e-05, 1.81951891e-05,
          -6.96437346e-05, -6.51254886e-05, -5.19968671e-05,
          -1.68356983e-05, 2.84199741e-05, 2.13183921e-05,
          7.37071387e-05, 4.60397059e-05, 1.40924985e-05, 7.97723987e-05,
          3.67807625e-05, 1.27016965e-05, -6.50724905e-05,
          -3.75760865e-05, 1.39877757e-05, 5.82176799e-05,
          -3.58506841e-05, -3.62784658e-06, 9.93566646e-05,
          9.47004301e-05, -5.45075545e-06, -4.39393307e-06,
          6.37432604e-05, 4.73663931e-05, -6.46777480e-05,
          3.55526936e-06, 5.08112389e-05, 1.01634078e-05, 4.49462386e-05,
          7.38735935e-06, -2.14287993e-05, -5.00393362e-05,
          3.86563370e-05, 9.91787056e-06, 3.47572604e-05,
          -3.35449513e-05, 5.46218762e-05, -3.28785536e-05,
          8.73812405e-06, 3.35945442e-05, -2.44949024e-05,
          -1.08120485e-05, 8.27708136e-05, -5.77590129e-07,
          -3.29764443e-05, 4.37830522e-06, -1.85739500e-05,
          6.11883006e-05, -4.69062907e-05, -3.81472819e-05,
          9.86111772e-05, 3.68215733e-05, -1.47694027e-05,
          -1.76354879e-05, 1.11993704e-05, 6.04821143e-05,
          -1.08986330e-06, 9.06853802e-06, -1.02528593e-05,
          -9.20719904e-05, 5.13725317e-05, 2.27769997e-05,
          -5.65328955e-05, 6.78546276e-05, -8.35661831e-06,
          6.35849938e-05, 4.21295726e-06, -1.10984212e-04,
          8.75788246e-05, -1.50958977e-05, 4.18161799e-05,
          5.93968616e-05, 3.86263418e-05, 5.82159282e-06,
          -3.67897737e-05, -1.06266170e-05, -6.69120200e-05,
          6.25842858e-06, -1.62623073e-05, 1.23095506e-05,
          -3.58213110e-05, -5.37383530e-05, -8.10221245e-05,
          -1.71637239e-05, 5.10812752e-05, -7.14070629e-05,
          4.30577438e-06, 1.80128591e-05, 4.96437060e-05, 2.29017714e-05,
          -8.39418408e-06, -6.64079344e-05, 1.91050063e-07,
          2.35791413e-05, -3.67191315e-05, -1.04594255e-05,
          8.86369344e-06, 6.81910169e-05, 3.88012377e-05,
          -5.08870580e-05, 6.91351524e-05, -5.91089702e-05,
          -2.66618317e-05, 5.87914565e-06, 4.04948914e-05,
          4.74968656e-05, 3.31356314e-05, -2.90247972e-05,
          -9.72975613e-05, -1.06466614e-05, -4.88725454e-05,
          4.88969381e-05, -5.61105626e-05, -1.50985034e-05,
          -4.47998764e-06, -1.16771289e-05, -1.25220186e-05,
          2.19279245e-05, -2.78832408e-06, -2.68222157e-05,
          4.77177637e-05, -2.34230829e-05, -6.15935351e-05,
          1.69245322e-05, 7.98295659e-05, 2.62459453e-05,
          -5.84929003e-05, -1.80226707e-05, 1.25600505e-04,
          2.47473490e-05, -1.54026820e-05, 6.20465198e-06,
          8.58823259e-05, -3.75359923e-05, -5.63135545e-05,
          5.00476272e-05, -2.88804222e-06, 1.36129556e-05,
          6.93371840e-05, 1.85325716e-05, -5.44004761e-05,
          -4.52996210e-05, -7.04920330e-06, 3.73344556e-05,
          -9.96815506e-05, 9.20446928e-06, 9.13719196e-05,
          3.39498001e-05, -3.05255853e-05, 1.16232422e-05,
          3.42778585e-05, -3.98755656e-05, 1.39588365e-05,
          -2.25077711e-05, -2.14678839e-05, 1.78803566e-05,
          4.02024089e-05, 6.64130785e-05, -5.47672680e-05,
          8.29050748e-07, 4.18505952e-05, 6.69811707e-05, 2.44250805e-05,
          1.55229282e-05, -2.37478744e-05, -2.18416844e-05,
          -1.06458974e-05, 9.50764218e-07, 1.16422952e-05,
          -1.40924885e-05, 2.20527400e-05, 2.23960033e-05,
          5.48992284e-05, 7.64080050e-06, -4.57973838e-05,
          -1.82295989e-05, 1.00879108e-04, 1.04173632e-05,
          6.15819272e-06, 6.80041267e-05, -4.51688829e-05,
          -2.69446882e-05, -8.07664983e-05, 2.34829004e-05,
          3.41718419e-06, -1.98791022e-05, -7.62031195e-05,
          -3.20670988e-05, 7.20110329e-05, 2.27330966e-05,
          -7.10161185e-05, -2.75406728e-05, -9.96058247e-07,
          -7.06951278e-06, -4.68512262e-05, -2.61524947e-05,
          -8.22859511e-06, -2.40281952e-06, -2.96544913e-05,
          -4.65116318e-05, 5.36663938e-05, -6.08394730e-05,
          -8.46961339e-05, 2.87091007e-06, 4.08152264e-05,
          -4.35785405e-05, -1.57437880e-05, 2.79881369e-05,
          3.93222872e-05, -5.10764585e-06, -5.70183647e-06,
          1.40736975e-05, -1.39729273e-05, -6.45066120e-06,
          -3.08469098e-05, 1.75965070e-05, -6.95405606e-06,
          1.29945925e-04, 2.33879655e-05, -6.87150969e-05,
          1.25204024e-05, 5.08423955e-06, -5.74319020e-05,
          -1.11372819e-05, -6.73286740e-06, -8.84755173e-06,
          -1.74421784e-05, -4.75007546e-05, 2.45098181e-05,
          2.08979200e-05, -2.86016275e-05, 3.14595090e-05,
          3.58983489e-05, 1.13909537e-05, -8.16384897e-07,
          2.85743645e-05, 4.37619092e-05, -1.23364243e-05,
          -6.08570881e-05, -8.29590135e-06, 1.44082260e-05,
          6.57081637e-06, 7.18817246e-05, 5.35999206e-05,
          -7.51962216e-05, -5.15086977e-05, -7.89174555e-06,
          1.30614558e-06, 2.01669791e-05, 3.28536044e-05,
          -1.61718049e-06, -1.05156432e-05, -9.35732896e-05,
          7.40947917e-06, -1.89663642e-05, 4.13125708e-05,
          -6.31573275e-05, 2.22631843e-05, 9.44786007e-06,
          1.56460246e-05, -2.77046056e-05, 5.12349179e-05,
          -3.61875209e-05, 4.97007677e-05, 3.85341991e-06,
          3.01311229e-05, 3.32736272e-05, 2.62509184e-05, 4.51662418e-05,
          1.74761863e-05, -5.80796295e-05, -1.24398389e-06,
          3.74293595e-05, -5.27688599e-06, 2.85718852e-05,
          1.02978256e-05, -3.23882596e-05, -4.08823471e-05,
          -4.62969947e-05, -2.48623091e-05, 2.73007408e-05,
          3.78517798e-05, -6.91070745e-05, -1.86474572e-05,
          -6.59315483e-05, -2.29516718e-06, 1.50673304e-05,
          -2.67577548e-06, -1.79103390e-05, -2.75213170e-05,
          -5.77311839e-05, -7.78219146e-06, 2.33515548e-05,
          7.34567266e-07, 2.04018252e-05, 5.04407435e-05,
          -3.23079730e-05, 5.99940540e-05, -2.89424170e-05,
          1.24661474e-05, 6.68355005e-06, -3.24512257e-05,
          1.70535750e-05, 1.12185175e-04, 1.33886624e-05,
          -6.10307552e-07, -7.66601261e-06, 8.29196688e-06,
          -2.10024191e-05, 7.03612604e-05, 4.77099165e-05,
          2.69278826e-05, 2.99243329e-05, 3.40905099e-05,
          -7.19722666e-05, -4.46051527e-05, -5.97362305e-05,
          1.61175503e-05, 5.91245225e-05, 5.48730823e-05,
          -3.31896626e-05, 5.33930188e-06, -6.34137323e-05,
          7.22265104e-05, 8.92244716e-05, -4.39703399e-05,
          -4.40721669e-05, -2.72509951e-05, -1.70507647e-05,
          3.06094807e-05, 8.67113340e-06, 4.89433478e-05, 2.35352650e-06,
          -3.06935472e-05, -7.85719658e-06, 7.69986364e-05,
          3.22243141e-05, -7.72791373e-06, 5.33281091e-05,
          3.11014155e-05, -7.46974911e-05, -9.51465245e-06,
          1.54453883e-05, 5.95542479e-05, -2.47701882e-05,
          5.29103090e-05, 2.22712042e-05, -5.37146343e-06,
          -2.55685954e-05, 1.34054126e-05, 9.56659551e-06,
          -7.09692104e-05, 2.55442901e-05, -7.03303231e-05,
          -7.43352794e-05, 1.58341518e-05, 7.62276832e-05,
          -3.74453266e-05, -9.86845334e-05, 4.84569136e-06,
          -4.53206740e-05, 3.44848704e-05, -4.22079756e-05,
          -4.42019109e-06, -4.73766013e-05, 2.71985991e-05,
          1.46893053e-05, 2.00058585e-05, -4.32226225e-05,
          4.41227712e-05, 5.56278610e-05, 8.36902036e-05,
          -2.87669227e-05, -4.08576580e-06, 3.07437622e-05,
          -3.07603223e-05, -9.48753150e-05, -4.56182497e-05,
          2.53774924e-05, -3.91935209e-05, -7.19588115e-06,
          2.64741575e-05, 1.11852045e-04, -4.91013316e-06,
          1.54236859e-05, -2.50767098e-05, -5.58767761e-06,
          -4.07117368e-05, -8.21430294e-05, 6.84152519e-06,
          8.05463642e-05, -6.99916882e-07, -1.19469318e-04,
          2.87499024e-05, 3.66159948e-05, -1.52253660e-05,
          5.13123496e-06, 6.63307364e-05, 7.88109537e-05, 1.53795609e-05,
          -7.20484895e-05, 7.86946403e-05, 4.37185918e-05,
          -3.07546507e-05, 1.95910907e-05, 3.49073816e-05,
          7.47991871e-05, -2.65055132e-05, 1.37480325e-04,
          3.88380213e-05, -6.82401151e-05, -5.29077697e-05,
          3.12647535e-05, -1.04631827e-05, -8.41559740e-05,
          1.20989180e-05, 7.22876357e-05, 5.29775061e-05,
          -3.91573412e-05, -1.75368896e-05, 1.84932342e-05,
          2.21945793e-05, 1.77980837e-05, 3.89540764e-05,
          -4.05163228e-05, -6.98297154e-05, -1.65918809e-05,
          5.92235228e-05, 4.24157633e-06, 2.85585179e-06, 4.80016242e-05,
          7.71604100e-05, -2.03466407e-05, -3.98262382e-05,
          -4.19170501e-05, 1.34733400e-05, 2.11784372e-05,
          -1.34818547e-05, 3.08386007e-05, -1.02133945e-05,
          9.28466543e-05, 4.32959750e-05, -4.70013219e-05,
          -1.33213507e-05, 4.81820643e-05, 3.62552009e-06,
          -7.01538447e-05, -2.48252727e-05, 5.76725797e-05,
          1.09927729e-04, 4.59964940e-06, -2.82818837e-05,
          -5.23761664e-05, -8.27415133e-05, -5.68050709e-05,
          -1.46301991e-05, -5.52648962e-05, -1.15262628e-05,
          -2.30368769e-05, -6.09485505e-05, 2.60218985e-05,
          1.43357702e-05, -7.73029205e-06, 8.06853586e-06,
          -1.43668576e-05, -8.71364973e-05, -1.11418514e-04,
          -3.02325534e-05, 9.96975068e-05, 3.90033856e-05,
          3.02008793e-05, -1.34787269e-05, 5.27699849e-05,
          2.50916510e-05, 4.39474170e-05, 3.52214483e-05,
          -3.35403274e-05, -1.04228231e-04, -1.03684724e-04,
          9.98640189e-06, 2.49230688e-05, 1.48873266e-06,
          -4.06369218e-05, -8.33016966e-05, -5.13336126e-05,
          -5.71474484e-05, -3.67193352e-05, 3.51491071e-05,
          1.40165257e-05, 3.23262975e-05, -1.09085222e-05,
          -8.63062960e-05, 3.76770186e-05, -4.69839870e-05,
          -5.67916650e-05, -7.70160113e-06, 1.22475754e-07,
          3.19923274e-05, 2.09151349e-05, -4.96422872e-05,
          1.01472680e-04, 8.54857281e-05, 3.06492552e-07,
          -5.93823206e-05, 7.27532752e-05, 3.68948276e-05,
          4.88273145e-05, -1.32957775e-05, -5.54562175e-05,
          -4.16055846e-05, 1.64049581e-07, 3.87775763e-05,
          8.96565107e-05, 1.24074038e-04, 5.99841042e-05,
          -1.45182148e-05, -3.79752055e-05, -4.84953671e-05,
          -4.29605061e-05, 1.43972920e-05, 1.41568689e-05,
          6.07799520e-05, 7.28381128e-05, 1.83134398e-05, 2.43618015e-05,
          -5.87097429e-06, -1.25994247e-05, 3.31506430e-06,
          7.14183552e-05, 8.79625295e-05, 4.45515652e-05, 9.67461710e-06,
          8.41562360e-05, 3.63522158e-05, 2.61561490e-05, 2.28895942e-06,
          -1.00194498e-04, -4.37879644e-05, 6.40961298e-05,
          -8.79467370e-06, -3.77724928e-06, -1.18442324e-06,
          -4.19296020e-06, -1.75850164e-05, -3.76426142e-05,
          4.51577071e-05, 4.07814950e-05, -2.12731466e-05,
          -3.78903642e-05, 2.09550963e-05, -2.57694464e-05,
          -5.53235877e-05, -4.50866901e-05, 3.12616726e-06,
          5.71311066e-05, -1.53076360e-06, -7.69434555e-05,
          3.20846448e-05, -6.84305778e-05, -9.61200421e-05,
          2.83462377e-05, -6.89745093e-06, -4.03177692e-05,
          -2.57054344e-05, -8.10476831e-06, 2.18436671e-05,
          -6.33766249e-05, 3.97510939e-06, -4.65493758e-05,
          -5.89114352e-05, -7.83220185e-06, 1.89736204e-06,
          1.77559411e-06, -7.75230947e-05, 9.28442932e-06,
          3.93039409e-05, 7.94507650e-05, 5.70704324e-05,
          -7.24312122e-05, -1.03249564e-04, 3.50528389e-05,
          -1.97485788e-05, 5.02526345e-05, -9.57179282e-07,
          -4.95551903e-05, -4.08199121e-05, -1.65975944e-05,
          -9.27374458e-06, -1.93583746e-05, 7.07202489e-05,
          -5.21244985e-08, -4.72385836e-05, 6.97214782e-05,
          3.20560284e-05, -4.56071666e-06, -1.36585004e-05,
          -2.71233730e-05, -4.05884530e-05, -1.02009362e-04,
          2.25050389e-05, -2.06378700e-05, -2.60870511e-05,
          6.81475467e-06, -9.13947042e-06, -1.57301438e-05,
          4.37473091e-06, 7.97834946e-05, 2.57522879e-05, 3.73562689e-05,
          1.40792239e-04, -1.36452172e-05, -1.08138847e-04,
          -6.20452702e-05, 1.48306444e-05, 5.68389405e-05,
          4.36036462e-05, -1.39922035e-04, -3.84463647e-06,
          4.68903527e-05, -3.36747762e-05, -9.34530181e-06,
          7.79330076e-05, 1.33983151e-04, -3.22885899e-05,
          -4.15197173e-05, 6.47464694e-05, 1.07778818e-04,
          2.25418662e-05, -4.47691236e-05, -1.81346350e-05,
          3.21858679e-05, 6.68264256e-05, -2.25058511e-06,
          -7.68360405e-06, 2.68868243e-05, 5.72437057e-06,
          -5.61685956e-05, 1.02289254e-04, 4.04060156e-05,
          -1.32120877e-05, -6.99348093e-05, 7.08408425e-06,
          1.06497340e-04, -5.23802464e-06, -7.48896764e-06,
          -2.46805976e-05, -3.53296709e-05, 4.41434058e-05,
          -1.34677117e-04, -2.41886501e-05, 1.03722778e-04,
          1.06341340e-05, 6.65414518e-06, -2.82795791e-05,
          -4.38074712e-05, -8.43297767e-06, -4.86812278e-05,
          5.65157097e-05, 8.79432482e-05, 1.84442433e-05, 5.27759721e-06,
          2.16738281e-05, 2.09366626e-05, 5.09792517e-05,
          -1.37719602e-04, -3.49673173e-05, 1.38251980e-05,
          8.42807913e-06, 9.07556241e-05, 3.27342354e-06,
          -1.58229923e-05, -8.85322006e-05, -2.03141008e-06,
          1.49778016e-05, 8.31095895e-06, -3.90384957e-05,
          2.28045792e-07, -1.50778942e-05, 5.62288333e-05,
          -5.45528019e-05, 8.38504056e-05, -3.87659384e-05,
          -1.96703495e-05, -3.23295717e-05, 3.41477498e-05,
          1.23878090e-05, 2.96981707e-05, 3.82845610e-06,
          -1.84271244e-06, 7.79994753e-06, 2.61564019e-05,
          -7.23837002e-06, 3.63690378e-05, 2.25982712e-05,
          -3.07695882e-05, -2.34059880e-05, -4.29967113e-05,
          -6.43606982e-05, -2.09077989e-05, 4.77459798e-05,
          7.47431550e-05, 7.38820245e-06, 1.63497807e-05,
          -1.88677423e-05, 3.99988021e-05, -1.17711352e-04,
          -4.73960972e-05, -6.51770897e-05, 4.18118695e-08,
          -1.22211022e-05, 5.34400351e-05, 8.07054312e-05,
          1.80177756e-06, -1.06790205e-04, -3.52336538e-05,
          -1.57591330e-05, 9.33934498e-05, -1.90010633e-05,
          -1.14296508e-05, 1.93949181e-05, 7.14410589e-07,
          -3.38246864e-05, 2.92033310e-05, 1.81339019e-05,
          1.61892385e-05, 1.97962545e-05, 5.72919134e-06,
          -7.81022609e-05, 7.67021556e-05, 4.22482954e-05,
          -1.64548292e-05, -3.50953223e-06, 3.48457434e-05,
          -7.38531453e-05, -2.46813343e-05, 7.44253111e-06,
          3.09692114e-05, 5.60802873e-05, -4.07480475e-05,
          -1.06739782e-04, -1.34604843e-05, 8.22840411e-06,
          4.87295220e-05, -2.29806938e-05, -3.20169020e-05,
          -4.31609769e-05, -6.09202252e-05, 1.74528668e-05,
          9.53561175e-05, 1.10249675e-06, 1.56069436e-05, 8.07785727e-06,
          -4.32056659e-05, -1.12454298e-04, -1.83514312e-05,
          5.28911842e-05, 1.06492507e-05, -2.07280336e-05,
          3.15729085e-05, 2.58666169e-05, 4.80651943e-05, 8.28850752e-05,
          2.93692369e-06, -4.54095643e-05, -3.64590778e-05,
          -9.19902595e-05, -7.78491631e-06, -2.48393007e-05,
          2.74709328e-05, 9.02607353e-05, -4.09614444e-07,
          -3.75828640e-05, 1.74167326e-05, -1.13943361e-05,
          -1.95049997e-05, -1.25403880e-04, 3.25934598e-05,
          -7.94093721e-05, -9.52522259e-06, 3.08102317e-05,
          5.31398728e-05, -3.35770733e-06, -7.32000763e-06,
          -5.71345154e-05, -5.09170677e-05, -5.81453787e-05,
          -3.36575431e-05, -2.36161613e-05, -2.22549279e-05,
          -9.28757800e-06, 1.28151250e-05, -1.19832966e-05,
          4.19397766e-05, -7.89160185e-05, -5.78965846e-05,
          3.34078379e-07, -2.20565653e-05, 7.08358057e-05,
          2.00063623e-05, 3.65430460e-05, 1.25031554e-04,
          -9.08305537e-06, -5.67934294e-05, 2.83625977e-05,
          -2.06761742e-05, 6.54479954e-05, 1.46135499e-05,
          4.43430145e-05, 8.69129290e-05, 1.57446466e-05,
          -3.15941907e-05, -5.31722726e-05, -3.99058990e-05,
          6.88564760e-05, 9.17987709e-05, 2.79834694e-05, 3.20407125e-05,
          -1.94482000e-05, -1.43479092e-05, 1.81883333e-05,
          3.03365323e-05, 4.86531135e-05, 1.83741977e-05, 6.61561644e-05,
          2.95337832e-05, -3.28899805e-05, -5.65937007e-05,
          -7.82357965e-05, -4.67297468e-05, 4.07067000e-06,
          7.29872991e-05, 4.13030248e-05, 8.12222697e-06, 1.27222211e-05,
          -2.92685600e-05, -7.98825276e-05, -4.76293353e-05,
          9.48671950e-05, 6.96877178e-05, -5.29641802e-05,
          6.55264812e-05, 1.21427329e-05, -3.55989869e-05,
          3.49092406e-05, -3.04248424e-05, -3.76596763e-05,
          -1.63639161e-05, -5.55697952e-05, -2.50473040e-05,
          9.72341968e-06, 1.13329397e-05, 5.14675412e-05, 2.83761838e-05,
          3.21087318e-05, 1.89385028e-05, -5.71292389e-07,
          -1.27258284e-06, -3.91629401e-05, -2.90000262e-05,
          -1.34579141e-05, -5.63608864e-06, -1.20327415e-04,
          -7.50248728e-05, 5.50012155e-05, 2.52129812e-05,
          -3.26013760e-05, -4.18884301e-05, -4.71160311e-05,
          -7.02747711e-05, 2.22876988e-05, -6.58286444e-06,
          -1.53832229e-06, 2.77205818e-05, -6.09847375e-05,
          -8.15839885e-05, 2.45002084e-05, 3.44401742e-05,
          -7.50249274e-06, 5.68096766e-05, 6.91021560e-05,
          -5.63210415e-06, -2.77190666e-05, -2.77964864e-05,
          -6.27884492e-06, 2.92097429e-05, 2.66142001e-06,
          -2.55816940e-06, 5.15432112e-05, 1.47583141e-05,
          -6.41869265e-05, -2.56697840e-05, 6.27192230e-06,
          -1.41225746e-05, -4.02301994e-05, -3.28225906e-05,
          -2.48252782e-05, 8.22282818e-05, -1.80836651e-07,
          -6.84949146e-06, -1.91257004e-06, -8.20252535e-05,
          -9.24905980e-05, -7.13640520e-06, 8.12149883e-05,
          9.49993648e-07, 2.21340924e-05, -2.28833255e-06,
          -2.31255963e-05, 7.39568277e-05, -3.36451137e-07,
          -7.44730005e-06, 2.87874354e-05, 1.03420762e-05,
          4.65145677e-05, -5.90686614e-06, -5.24092466e-05,
          1.60964773e-05, 2.77982454e-05, 1.07045344e-05, 1.65816818e-05,
          -9.36768192e-05, 9.44504518e-06, -4.12409827e-05,
          -4.56747111e-05, 5.95711799e-06, 1.35554992e-05,
          3.85392013e-05, 1.70793192e-05, -3.74924857e-05,
          1.49909310e-05, -4.98209192e-05, -3.11243894e-05,
          -1.03566745e-04, 7.37910159e-05, 1.95534194e-05,
          7.22879258e-06, 6.66831911e-05, 2.78618827e-05,
          -1.80901552e-05, -3.61817620e-05, -8.56656243e-06,
          7.03342957e-05, -6.38545862e-06, 2.31234626e-05,
          4.50575935e-05, 3.07838091e-05, -3.89315073e-06,
          2.14876527e-05, 9.40281971e-05, 1.15851428e-04,
          -2.84949601e-05, -6.07565453e-05, -2.89119889e-05,
          -2.36514588e-05, -9.57077136e-05, -4.70588238e-05,
          8.82317818e-06, -5.61530032e-06, 2.18735640e-05,
          3.78284039e-06, -2.70921410e-05, 1.00961632e-04,
          -8.11656064e-05, 2.14515276e-05, -6.52361086e-06,
          3.68668516e-05, 2.14509578e-06, -1.76029189e-05,
          1.21795574e-05, 8.49873468e-05, -8.01676561e-06,
          6.99626071e-06, -1.60830023e-05, 5.04618511e-05,
          -2.88380238e-06, 1.29411210e-05, 1.05250065e-05,
          -1.93143314e-05, 4.33128735e-05, 1.71469255e-05,
          4.80512099e-05, 8.82284439e-05, -7.08587831e-05,
          -2.61470650e-05, 4.11311266e-05, 1.29959171e-05,
          -2.33920091e-05, 7.20574026e-05, 2.09253471e-06,
          -9.03993496e-05, -3.18990205e-05, -2.31317772e-05,
          -1.53348556e-05, 1.79232156e-05, 1.88241108e-06,
          1.00596240e-04, 7.20005573e-06, -4.19875687e-05,
          -9.03414257e-05, 2.30218138e-05, -1.78134960e-05,
          5.93328441e-05, 6.60147998e-05, 1.70487037e-05,
          -4.03593367e-05, 1.34281854e-05, -7.44696536e-06,
          6.44787506e-05, -4.34613685e-05, -1.17039053e-05,
          7.38771414e-05, 6.22305088e-05, 1.85196895e-05, 6.73553659e-05,
          1.01749320e-05, 3.60925442e-05, -6.62454695e-05,
          5.26664080e-05, -8.45357863e-06, 4.64221339e-05,
          3.54130025e-05, 2.53820076e-06, 4.44289362e-05,
          -1.11130896e-04, -7.48660386e-05, 3.11888434e-05,
          4.84226030e-06, 2.00957093e-05, -2.59168664e-05,
          -1.48153811e-06, -6.55314143e-05, -5.32486483e-05,
          -1.46127670e-04, 5.27621232e-05, 2.21676710e-05,
          1.17218997e-05, -1.44724072e-05, -2.30343176e-05,
          -1.03585280e-05, 2.95380341e-05, -2.79863307e-05,
          6.07710426e-05, 2.25350359e-05, 7.45495272e-05,
          -4.90684079e-06, 1.54726695e-05, 4.76884452e-06,
          3.64676453e-05, -1.34772035e-05, -8.12970684e-05,
          4.39233881e-05, -6.74283638e-06, -6.52422605e-05,
          -5.64061747e-06, 7.55513929e-06, 4.29569227e-05,
          -1.92056614e-05, 5.88680741e-05, 3.04316163e-05,
          -8.34555394e-05, 3.57596946e-05, 3.07093578e-05,
          5.44684408e-05, 1.32185334e-04, 4.37938324e-05, 5.42654379e-05,
          -4.03686645e-05, -2.52986356e-05, 4.44029356e-05,
          3.38625978e-05, 2.78480147e-05, 2.93561479e-05, 5.93767727e-05,
          3.66954373e-05, -3.06143811e-05, -3.12181983e-05,
          1.82889671e-05, -1.34258817e-05, -1.34994971e-05,
          -1.51226196e-08, 2.80741097e-05, -1.11011163e-04,
          -5.27098928e-05, -5.22871278e-06, -4.76482492e-05,
          -5.36555162e-05, -3.91458925e-05, 5.39322900e-06,
          6.90373708e-05, 5.28843957e-05, 6.80292624e-06,
          -3.82368235e-05, -3.52067618e-05, -4.73843756e-05,
          -6.00014791e-05, 5.60558947e-05, -7.74428008e-06,
          -7.64949073e-06, -3.20809668e-05, -4.63359538e-05,
          -2.47297194e-05, 6.95583949e-05, -4.48679384e-05,
          2.54876777e-05, -1.15086232e-05, -3.03478046e-05,
          -1.69052491e-05, -2.21655264e-05, 8.56124097e-05,
          6.77430726e-05, -3.89865636e-05, -5.97356375e-05,
          5.86077949e-05, -1.01527738e-04, -4.46545309e-05,
          -2.93187841e-05, -2.41898142e-05, -4.49242507e-05,
          4.73800674e-06, 2.00118702e-05, 6.39132559e-05, 5.06327451e-05,
          -3.90467312e-06, -3.45849694e-05, -3.95816778e-06,
          -4.28216163e-06, 5.40536421e-05, 1.05302288e-05,
          -3.81503514e-06, 3.56785713e-05, 5.30811085e-05,
          4.09375752e-05, -2.61996611e-05, -6.95890194e-05,
          -3.46174384e-05, 1.41806740e-05, -1.10947272e-04,
          2.78519383e-06, 1.38153473e-05, 3.39670223e-05, 1.28534535e-04,
          -7.34428613e-06, -2.82202254e-05, -1.08531225e-04,
          2.43737122e-05, -2.09341056e-06, -2.74215654e-06,
          -4.41278862e-05, -1.63835939e-05, -1.20867107e-05,
          5.81861896e-05, 1.88706906e-06, -2.50865669e-05,
          3.02743047e-06, -1.36018916e-05, 4.20806791e-05,
          8.48678392e-05, -4.88266269e-05, -8.17572163e-06,
          -6.66248961e-05, -5.19231107e-05, 3.78081677e-05,
          2.65844083e-05, 3.84717096e-05, 4.56852977e-05,
          -6.92727699e-05, -5.38916138e-05, -9.52951523e-05,
          -4.96190260e-05, -5.03162191e-05, 2.39486853e-05,
          1.89717721e-05, 8.09759440e-05, -3.87989094e-05,
          -3.34753058e-05, -3.13505770e-05, -7.65659843e-06,
          -2.61662753e-05, -4.26834958e-05, -5.96821556e-05,
          -1.27605323e-04, -1.24342114e-05, 5.16528344e-05,
          3.67101029e-06, -1.70517251e-05, 1.64092708e-05,
          -4.22923913e-05, -1.83775555e-04, -7.56486043e-05,
          1.14451923e-05, 5.13083723e-05, 2.01159619e-05,
          -3.89491797e-05, -2.25844560e-05, -3.05063641e-05,
          -5.10239988e-05, 3.88378103e-05, 8.22100628e-06,
          4.62212738e-05, 4.60071351e-05, 1.75120767e-05, 6.04838942e-06,
          5.86209035e-06, -4.84241682e-05, -3.49935435e-05,
          -1.75781879e-05, 2.55771392e-05, 3.28210444e-05,
          -2.06416789e-05, -4.72425818e-05, -7.37036171e-05,
          -3.83845654e-05, -1.14477851e-04, -2.08440838e-06,
          1.78540413e-05, 4.52219465e-05, 4.15996874e-05,
          -5.91780690e-06, -2.92519562e-05, -6.66904816e-05,
          -5.66782364e-05, 2.13615549e-05, 2.41062535e-05,
          5.16141226e-05, -1.26459763e-05, 8.25948405e-07,
          2.87065490e-07, -1.23890622e-05, 1.95709090e-05,
          -4.70933492e-06, 1.03831298e-05, 3.94068593e-05,
          7.98106485e-05, -3.59164042e-05, -2.28188528e-05,
          -3.95734751e-05, -9.49041350e-05, -6.34909302e-05,
          7.67726434e-08, 1.20875848e-05, -9.55227442e-05,
          -7.07045319e-06, 5.21616712e-05, 4.87179896e-05,
          -6.60295482e-05, -2.15875866e-06, 1.21845791e-04,
          -1.74637426e-05, -2.62264293e-05, -2.35211828e-05,
          6.97706419e-05, 1.09519688e-05, -7.42927950e-05,
          4.70152263e-05, 1.01917525e-04, -2.44408557e-06,
          3.06394645e-06, 5.65424671e-05, 3.90375972e-05, 8.62100205e-05,
          -1.57203988e-06, -5.91639728e-05, 1.23088275e-05,
          5.14210296e-05, 5.37163214e-05, 3.42523595e-06, 6.54182145e-07,
          2.54602364e-05, -7.97957473e-05, -7.21521428e-05,
          -3.63988875e-05, 3.94366180e-05, -7.25795180e-05,
          4.99391099e-05, -1.22018055e-05, 3.47165733e-05,
          4.21538862e-05, 6.18771810e-05, 3.03245324e-05,
          -1.12452071e-05, 3.71551614e-05, 4.66451129e-05,
          -4.18039890e-05, -5.08367702e-06, 2.00596951e-05,
          5.86758324e-05, 1.20897812e-05, -2.35169300e-05,
          1.56508268e-05, 3.77306824e-05, 2.06531422e-05, 4.60654373e-05,
          4.27697014e-05, 6.14837627e-05, 6.16840116e-05, 3.11193435e-05,
          2.99742896e-05, 1.42970734e-04, 4.68446124e-05, 3.81039281e-05,
          -5.18196794e-05, -1.80697680e-05, 3.51245435e-05,
          2.85639180e-05, 9.02319061e-06, 5.99600608e-05,
          -3.45520129e-05, 4.45075821e-05, 7.89882779e-06,
          -1.99771530e-05, -5.34756418e-06, -2.05430351e-05,
          -1.21816629e-05, 1.09038820e-05, -1.18976377e-05,
          9.09025584e-06, 1.73262233e-05, -4.94447959e-05,
          -1.21903722e-05, -1.38444157e-04, 6.92024878e-06,
          -2.60187335e-05, -2.10786602e-05, 2.45152387e-05,
          2.24339487e-06, -1.32218236e-06, 2.98938849e-05,
          -5.64558759e-05, -2.77799681e-05, -3.79644334e-05,
          -2.68830881e-05, -8.95928861e-06, 5.47911759e-06,
          -4.70614905e-05, -6.91480045e-06, 1.20590248e-05,
          -3.58590405e-05, 1.81352589e-05, -3.06059301e-05,
          1.36604986e-05, -9.44173662e-05, -5.87323348e-06,
          -1.34721759e-05, -2.83462650e-05, 2.24022751e-05,
          -6.02379696e-05, -4.66887068e-05, -2.16755889e-05,
          -6.30959403e-05, -1.32258883e-05, 4.88543083e-05,
          -1.36826393e-05, 8.36577674e-05, -5.53370737e-05,
          -7.40763498e-05, -1.83871543e-06, 1.35383352e-05,
          -2.25850163e-05, 2.93726880e-05, 4.74911758e-05,
          -1.71999363e-05, -6.28538401e-05, -3.59851110e-05,
          -2.47177140e-05, 1.83403772e-05, -4.05854735e-05,
          -3.38930367e-05, -2.78080952e-05, -3.97647018e-05,
          1.18199223e-05, -2.58860673e-05, -1.18974778e-04,
          7.73276588e-06, -6.13908924e-05, -8.76112535e-05,
          -4.36178598e-05, 2.48958731e-05, -2.90738371e-05,
          -1.27342616e-06, -6.72265378e-05, -7.04108243e-05,
          -4.01275793e-05, -8.76573176e-06, 1.77377879e-05,
          7.12119363e-05, -1.17406031e-04, -1.18007210e-05,
          -9.28716508e-06, -2.04608696e-05, -3.09231218e-05,
          2.20324782e-05, 1.17535979e-04, -2.44405164e-05,
          -4.01695979e-05, 8.02976842e-07, -4.85576811e-06,
          2.46177242e-05, 2.01596704e-05, -3.45001936e-05,
          -6.67116619e-05, -2.44893381e-05, -2.91671749e-05,
          -1.87071819e-05, -1.10443390e-04, -4.19227108e-05,
          7.46092655e-06, 1.02178801e-05, -4.43165518e-05,
          -4.00693534e-06, -7.59955219e-06, -1.49199377e-05,
          -6.38830752e-05, -8.94868499e-05, 4.36965929e-05,
          1.60156942e-05, -1.04359628e-04, 1.60597610e-05,
          -5.15833417e-05, 1.32971809e-05, -1.24957060e-05,
          -2.29270572e-05, -4.79660193e-05, 8.15634849e-06,
          -6.15696899e-06, -8.10994970e-05, -3.18251987e-05,
          3.68796864e-05, -2.76598585e-05, -7.60247849e-06,
          1.78900682e-05, 2.57254269e-05, -3.63888466e-05,
          -5.45715047e-05, 2.06302229e-05, 3.51655908e-05,
          9.78133248e-05, -3.72710856e-05, 4.22232297e-05,
          2.18430105e-05, -1.61784355e-05, 2.30718433e-06,
          -1.13433080e-05, 4.98050758e-05, 6.78897850e-05,
          -1.21026977e-04, -1.57569812e-05, 2.35730695e-05,
          5.50274763e-06, -2.12914856e-05, -9.67641517e-06,
          1.23483433e-05, 6.92606845e-05, -5.64441871e-05,
          2.21776827e-05, 5.76648563e-06, -1.71287775e-05,
          -7.63119460e-05, -1.87894477e-06, 2.84876933e-06,
          5.53606733e-05, 4.74084191e-05, 9.25565109e-06, 1.91761956e-05,
          -2.32230159e-05, 1.56999340e-05, -3.26079025e-05,
          -4.69228289e-05, 6.40585786e-05, -7.56289955e-05,
          2.32881284e-05, 5.28287928e-05, 5.29654935e-05, 1.03078310e-04,
          -5.57299745e-06, -3.24810171e-05, -6.51357914e-05,
          -7.72430940e-05, 7.50246109e-05, 9.37205696e-05,
          1.13273163e-04, -2.11632560e-05, -2.00160539e-05,
          -1.42032522e-05, 6.79047225e-05, -2.73580063e-05,
          5.55007246e-05, 3.42891799e-05, 4.71732274e-05,
          -8.47203773e-05, -2.59627668e-05, -2.80878680e-06,
          4.86718563e-05, -6.44747024e-06, 5.65992025e-07,
          2.62685298e-05, 7.59901741e-06, 2.14300599e-05, 2.12079649e-05,
          -1.05337211e-04, -2.10197941e-05, -6.95463677e-05,
          -2.68059193e-05, -1.93184642e-05, 8.58330895e-05,
          4.63215838e-05, 3.90994028e-05, -9.12469332e-05,
          -5.69304539e-05, 1.12405560e-05, 8.49420248e-05,
          2.69062712e-05, -4.80557101e-05, 6.27449481e-06,
          -5.39864641e-06, -1.51033710e-05, 8.99277875e-05,
          4.51885862e-05, 5.25950672e-05, 4.08651904e-05,
          -1.62048309e-05, 1.97367608e-05, -6.20539795e-05,
          -7.33788984e-05, 8.27399563e-05, -1.00325333e-05,
          -1.19369324e-05, -3.53569558e-05, -4.10583243e-06,
          3.55319389e-05, 5.89527917e-05, -2.48609140e-05,
          -2.69941302e-05, 1.42822828e-05, 4.32954876e-05,
          -5.02525800e-05, -8.06925527e-06, -1.06104526e-04,
          7.79099173e-06, -1.85585213e-05, -1.75548194e-05,
          -2.47760381e-05, 5.03600713e-05, -3.36883713e-05,
          -7.58562164e-05, -1.36962568e-04, 6.72625465e-05,
          1.64395606e-05, 5.25643154e-05, 2.85039255e-06,
          -2.74314129e-06, -2.12998220e-05, -1.16374460e-04,
          -5.75785307e-05, 5.94181365e-05, -1.87749429e-05,
          2.02221436e-05, -1.01744001e-04, -3.03126308e-05,
          7.50305389e-06, -2.36147253e-06, -3.16011574e-05,
          -3.04277710e-05, 5.83002657e-05, 4.32956222e-05,
          -2.80229033e-05, 4.61711898e-05, 1.80893821e-05,
          9.75728767e-07, 2.50538033e-05, -3.20537583e-05,
          -1.67993276e-05, 5.06408032e-05, -6.38557831e-05,
          -3.99020064e-05, 2.50496832e-05, 6.18283739e-05,
          -1.42183972e-05, 2.05947235e-05, 1.25498309e-05,
          3.94176423e-05, -2.82125511e-05, -6.27114641e-05,
          -9.96821768e-07, 2.22469498e-05, 2.20154197e-06,
          1.63829209e-05, -2.94198458e-06, 1.49191137e-05,
          -2.68074364e-05, -1.87242022e-05, -1.37803718e-05,
          8.57732721e-06, 3.35748518e-05, 2.19335720e-06, 8.42971640e-05,
          5.89915435e-05, -9.24663836e-05, 4.57773604e-05,
          7.47341755e-06, 2.70916735e-05, 3.87668370e-05,
          -5.96557438e-05, 3.35906188e-05, 4.70684972e-05,
          -7.40034957e-05, -3.22907204e-06, 5.25529358e-05,
          1.41777244e-04, -4.30068358e-05, 1.92357093e-05,
          2.02407500e-05, 2.61821588e-05, -2.87320527e-05,
          6.60980077e-05, 5.44271024e-05, 3.63872787e-05, 4.11346045e-05,
          6.39415230e-05, -3.06742695e-05, 4.75020497e-05,
          -4.49530198e-05, -1.33567914e-06, -3.68777619e-05,
          3.26300396e-05, 2.65041126e-05, 1.78527735e-05, 5.17820297e-07,
          -5.34254177e-05, -3.04828445e-05, -7.22640243e-06,
          -1.20404784e-05, 3.48459107e-05, -1.03794810e-05,
          4.52285967e-05, 9.54478855e-06, -2.15145719e-05,
          6.58355432e-08, -4.30589098e-05, 5.35606123e-05,
          3.99741803e-05, -8.71061420e-05, -4.47126949e-05,
          1.02111509e-04, 1.05032501e-04, -1.92176885e-05,
          -3.80795682e-05, -7.77429705e-06, 8.06627486e-06,
          -4.73250329e-05, 4.33812093e-05, 6.15848112e-05,
          2.63653892e-05, 2.45336378e-05, 9.16915724e-06,
          -3.87052460e-05, -2.21624905e-05, 8.20684945e-05,
          -1.86703055e-05, 1.69073774e-05, -4.15154100e-05,
          -5.14687454e-05, -2.46940890e-05, -1.30721295e-04,
          6.16357720e-05, 2.94926099e-06, -7.71430714e-05,
          -7.22739205e-05, -2.86630766e-05, 2.29779125e-05,
          2.27726687e-05, -2.55857667e-05, -6.15459066e-05,
          -9.43140112e-05, -9.54690913e-05, 2.95047744e-06,
          2.71402496e-05, -7.41942677e-06, 3.06608308e-05,
          -3.23345353e-06, -1.59495685e-04, 3.35629338e-05,
          -8.52246467e-06, -8.27234981e-05, 6.27142390e-06,
          1.15185458e-06, -6.42090381e-05, 1.25172137e-05,
          1.50819851e-05, -3.14654026e-05, 2.64193550e-05,
          6.42431914e-05, -1.72777127e-05, -5.20219946e-05,
          -9.74493923e-06, 7.51213956e-05, -5.04900709e-06,
          -5.63893536e-06, 4.09409986e-05, 1.55027756e-05,
          -3.94827202e-06, 3.48752837e-05, -1.69641226e-05,
          7.44720164e-05, 1.06714024e-05, 2.06202094e-05,
          -8.17324053e-06, -2.18477382e-07, 3.53968753e-05,
          -1.56175211e-05, -7.12395049e-05, 1.90884057e-05,
          5.06513461e-05, 6.04841716e-06, -7.33423212e-06,
          1.83368411e-05, 3.73157709e-05, -3.58750840e-05,
          -5.25805262e-05, 6.79934885e-07, -2.47384978e-05,
          9.31612158e-06, 7.88120524e-05, 9.34117852e-05,
          -4.80220115e-05, -7.67214715e-06, 7.11892562e-06,
          -5.93610275e-05, -5.80286614e-05, -4.16785588e-05,
          5.86473179e-05, 4.67238169e-05, -7.08228617e-05,
          1.61788867e-05, -1.50619962e-05, -6.36025470e-06,
          4.06299696e-05, -4.70372906e-05, 1.93555798e-06,
          -3.19691972e-05, -5.66839481e-05, 1.44805372e-05,
          1.25815477e-05, 3.53240248e-05, 2.27889414e-05,
          -2.58163418e-05, -6.36759796e-05, -2.83150785e-05,
          4.35376314e-05, 1.53402871e-05, 1.08263812e-05, 5.52438951e-06,
          -5.82909752e-06, 4.71582207e-05, 7.39992829e-05,
          -1.48541949e-05, -6.22977168e-05, 2.94593428e-06,
          -9.75683997e-06, 5.42418857e-05, -1.23839145e-05,
          6.87677166e-05, 1.00013076e-05, -1.67754879e-05,
          -9.88196989e-05, 1.61029402e-05, 2.99248532e-05,
          1.15619303e-04, 8.38965643e-05, -4.58178874e-05,
          -3.31394840e-05, -2.74094350e-06, -6.84550396e-05,
          -5.50162113e-05, 4.00611862e-05, 4.34294197e-05,
          1.42954304e-05, -3.18636376e-05, -8.47143965e-05,
          -1.63616351e-05, -2.11082443e-05, 5.05366406e-05,
          1.64065950e-05, 4.40093390e-06, 4.29112552e-05, 6.21332583e-05,
          3.63368872e-06, -9.79426040e-05, -6.33283125e-05,
          -3.35213990e-05, 5.38892527e-05, 1.39432377e-04,
          -1.43654815e-05, -1.35557581e-04, -2.22723156e-05,
          -1.57576742e-05, -6.39300561e-05, 4.88251462e-05,
          9.89705077e-05, 1.14439063e-04, -8.14867308e-05,
          -1.62721641e-04, -3.35876393e-05, -1.13081214e-05,
          -1.17006632e-04, -8.76836639e-05, 3.97825279e-05,
          7.36380971e-05, -7.61793990e-06, -4.37196795e-05,
          -4.33412861e-05, -2.57252414e-05, -7.32238987e-05,
          1.01400246e-05, 1.88824379e-05, 1.09410184e-05, 2.34809268e-05 ]
   uncompressed_sv_total: 20
   uncompressed_support_vectors:
      - [ 3., 7., 57., 29., 2., 0., 0., 0., 31., 24., 52., 38., 6., 1.,
          19., 30., 73., 93., 8., 1., 1., 3., 40., 39., 33., 29., 1., 0.,
          0., 0., 0., 4., 38., 12., 11., 1., 0., 0., 0., 4., 142., 20.,
          8., 0., 5., 12., 27., 110., 68., 30., 6., 7., 95., 66., 54.,
          57., 68., 41., 3., 2., 9., 2., 0., 4., 32., 3., 0., 0., 0., 0.,
          0., 4., 142., 92., 0., 1., 10., 4., 1., 19., 115., 42., 0., 5.,
          142., 61., 2., 6., 142., 18., 0., 0., 30., 12., 0., 3., 6., 3.,
          0., 0., 0., 0., 0., 0., 142., 107., 0., 1., 1., 0., 0., 1.,
          95., 70., 2., 9., 93., 22., 1., 3., 133., 11., 0., 0., 27.,
          13., 2., 18., 133., 23., 1., 5., 23., 1., 0., 11., 59., 15.,
          10., 13., 93., 28., 17., 38., 133., 25., 3., 0., 2., 3., 7.,
          55., 2., 0., 0., 0., 0., 0., 0., 0., 133., 1., 0., 5., 30.,
          18., 3., 27., 56., 62., 51., 45., 116., 85., 20., 24., 133.,
          127., 21., 3., 2., 5., 9., 51., 9., 2., 0., 0., 0., 0., 0., 1.,
          133., 0., 0., 0., 5., 19., 8., 77., 55., 3., 1., 2., 34., 133.,
          133., 80., 108., 6., 0., 0., 1., 11., 105., 133., 6., 0., 0.,
          0., 0., 0., 0., 6., 57., 0., 0., 0., 0., 0., 1., 16., 20., 0.,
          0., 0., 0., 3., 25., 18., 0., 0., 0., 0., 0., 1., 20., 13., 0.,
          0., 0., 0., 0., 0., 0., 0., 18., 6., 0., 0., 59., 63., 19.,
          53., 36., 25., 17., 11., 8., 26., 102., 104., 80., 17., 8., 9.,
          4., 15., 31., 31., 8., 1., 0., 0., 0., 0., 0., 1., 13., 20.,
          5., 1., 114., 82., 6., 18., 35., 71., 135., 67., 41., 24., 4.,
          11., 143., 67., 55., 31., 5., 3., 2., 5., 20., 2., 0., 0., 0.,
          0., 1., 2., 1., 0., 0., 1., 143., 64., 2., 2., 52., 6., 10.,
          15., 143., 51., 0., 0., 143., 15., 4., 4., 17., 3., 2., 15.,
          32., 0., 0., 0., 0., 0., 4., 10., 1., 2., 3., 10., 130., 12.,
          0., 0., 31., 3., 0., 0., 143., 30., 0., 0., 143., 24., 0., 0.,
          22., 5., 1., 7., 47., 2., 0., 0., 0., 0., 2., 8., 60., 13., 4.,
          11., 14., 4., 26., 107., 19., 5., 8., 20., 15., 79., 112., 46.,
          122., 19., 3., 7., 6., 15., 20., 27., 23., 4., 0., 0., 2., 1.,
          0., 1., 64., 136., 79., 10., 13., 2., 1., 17., 18., 46., 140.,
          140., 12., 10., 4., 5., 140., 77., 41., 35., 5., 3., 1., 3.,
          50., 3., 0., 1., 7., 1., 0., 1., 0., 41., 71., 9., 49., 38.,
          0., 0., 81., 27., 110., 49., 3., 1., 0., 7., 140., 20., 10.,
          5., 0., 0., 0., 26., 55., 1., 0., 1., 13., 0., 0., 2., 0., 1.,
          1., 4., 97., 65., 2., 3., 90., 5., 5., 4., 17., 3., 7., 55.,
          140., 3., 0., 0., 0., 0., 1., 33., 42., 1., 0., 1., 12., 0.,
          0., 1., 0., 53., 74., 35., 95., 10., 0., 0., 10., 139., 139.,
          3., 2., 0., 0., 0., 54., 139., 80., 0., 0., 1., 2., 17., 8.,
          19., 26., 3., 1., 6., 10., 12., 0., 2., 6., 72., 48., 14., 69.,
          8., 67., 64., 17., 4., 3., 41., 81., 18., 139., 65., 4., 0.,
          0., 2., 14., 76., 33., 18., 6., 0., 0., 13., 38., 32., 0., 1.,
          1., 2., 1., 27., 139., 27., 15., 1., 0., 0., 0., 41., 139.,
          83., 133., 17., 9., 1., 5., 11., 99., 111., 16., 59., 27., 1.,
          1., 1., 5., 4., 2., 31., 35., 0., 0., 5., 53., 9., 2., 32.,
          46., 4., 1., 2., 67., 29., 5., 12., 28., 16., 18., 11., 33.,
          15., 5., 12., 3., 0., 2., 4., 22., 11., 109., 44., 1., 2., 6.,
          9., 2., 1., 109., 86., 37., 85., 16., 0., 0., 0., 122., 49.,
          11., 35., 10., 0., 0., 0., 12., 3., 0., 6., 10., 1., 0., 0.,
          33., 26., 2., 14., 13., 5., 55., 64., 71., 58., 42., 47., 2.,
          37., 65., 22., 126., 40., 7., 13., 6., 6., 5., 10., 23., 3.,
          0., 6., 23., 2., 0., 1., 59., 7., 0., 2., 3., 7., 101., 126.,
          17., 2., 1., 7., 21., 126., 126., 35., 126., 4., 0., 4., 20.,
          53., 25., 55., 23., 0., 0., 3., 39., 4., 0., 5., 66., 119.,
          36., 5., 2., 3., 2., 19., 8., 23., 84., 126., 27., 22., 3., 2.,
          126., 33., 18., 40., 24., 10., 2., 9., 18., 1., 0., 2., 40.,
          3., 0., 1., 55., 2., 0., 11., 27., 4., 35., 36., 76., 40., 7.,
          0., 1., 3., 5., 13., 130., 15., 1., 1., 0., 0., 0., 28., 55.,
          5., 3., 7., 4., 0., 0., 9., 6., 1., 0., 1., 10., 72., 130.,
          69., 45., 48., 10., 1., 57., 130., 25., 5., 130., 48., 4., 6.,
          9., 4., 0., 18., 33., 25., 14., 26., 9., 1., 0., 3., 12., 36.,
          42., 41., 26., 32., 20., 16., 60., 5., 10., 112., 130., 73.,
          2., 5., 130., 11., 2., 21., 32., 6., 0., 30., 14., 6., 26.,
          77., 32., 2., 0., 3., 1., 39., 130., 69., 9., 3., 2., 2., 76.,
          6., 46., 127., 13., 0., 0., 23., 130., 31., 10., 49., 18., 0.,
          0., 11., 3., 5., 24., 93., 25., 0., 0., 0., 3., 2., 0., 0., 0.,
          40., 131., 73., 48., 43., 0., 0., 16., 120., 68., 3., 131.,
          73., 1., 0., 4., 6., 1., 3., 17., 15., 2., 4., 35., 5., 0., 1.,
          17., 12., 15., 24., 25., 46., 73., 83., 37., 5., 2., 83., 131.,
          119., 19., 2., 131., 21., 1., 10., 32., 8., 1., 15., 23., 4.,
          3., 11., 26., 6., 1., 5., 12., 57., 131., 84., 21., 2., 1., 3.,
          24., 5., 28., 131., 103., 13., 29., 27., 131., 31., 0., 6.,
          12., 4., 10., 45., 34., 14., 1., 3., 30., 25., 1., 1., 15.,
          78., 43., 11., 60., 27., 0., 1., 23., 69., 21., 3., 1., 3.,
          16., 7., 81., 41., 1., 0., 0., 0., 5., 9., 48., 33., 1., 9.,
          17., 17., 1., 1., 0., 0., 0., 4., 83., 39., 1., 0., 135., 7.,
          0., 0., 51., 58., 3., 6., 148., 29., 0., 0., 0., 0., 0., 2.,
          20., 4., 1., 2., 11., 0., 0., 0., 4., 11., 19., 6., 22., 47.,
          15., 12., 95., 3., 0., 2., 57., 111., 34., 20., 148., 39., 0.,
          0., 1., 5., 6., 19., 30., 14., 2., 3., 7., 1., 0., 0., 32., 7.,
          7., 3., 2., 13., 90., 148., 20., 0., 0., 2., 21., 148., 148.,
          36., 148., 21., 0., 1., 7., 32., 38., 51., 46., 14., 0., 0.,
          2., 1., 0., 3., 63., 64., 29., 6., 0., 2., 8., 50., 2., 8.,
          51., 104., 39., 38., 15., 4., 86., 51., 20., 43., 20., 12., 4.,
          3., 63., 9., 0., 0., 4., 1., 0., 4., 9., 5., 1., 2., 15., 35.,
          124., 53., 18., 12., 1., 4., 63., 119., 52., 8., 124., 27., 1.,
          1., 13., 11., 0., 11., 37., 17., 17., 18., 2., 0., 0., 3., 18.,
          103., 100., 37., 9., 8., 9., 13., 30., 9., 62., 124., 107.,
          33., 3., 2., 124., 21., 7., 37., 22., 4., 0., 20., 24., 4.,
          25., 118., 7., 0., 0., 3., 1., 35., 108., 40., 36., 24., 12.,
          1., 81., 9., 86., 88., 6., 1., 0., 22., 124., 37., 14., 47.,
          9., 0., 0., 13., 4., 5., 25., 117., 16., 0., 0., 0., 2., 1.,
          1., 6., 124., 36., 12., 3., 95., 11., 1., 3., 15., 1., 0., 17.,
          104., 6., 1., 22., 24., 0., 0., 9., 0., 0., 2., 40., 30., 0.,
          0., 1., 33., 2., 8., 52., 43., 0., 1., 22., 51., 6., 7., 9.,
          8., 1., 2., 39., 44., 10., 4., 1., 3., 1., 2., 57., 19., 0.,
          0., 0., 0., 0., 4., 47., 60., 4., 2., 30., 16., 1., 0., 27.,
          54., 38., 46., 122., 30., 1., 0., 10., 131., 89., 32., 18., 2.,
          0., 1., 48., 36., 2., 2., 2., 1., 1., 8., 46., 27., 0., 1.,
          11., 49., 9., 9., 86., 65., 9., 3., 69., 131., 8., 8., 17.,
          131., 113., 22., 7., 7., 0., 4., 23., 80., 46., 18., 2., 0.,
          0., 0., 9., 3., 0., 0., 5., 100., 31., 43., 78., 29., 4., 0.,
          9., 108., 38., 131., 87., 96., 60., 6., 1., 4., 56., 118., 63.,
          111., 21., 3., 0., 0., 1., 3., 36., 72., 7., 3., 1., 3., 15.,
          13., 20., 164., 3., 0., 0., 0., 0., 1., 91., 107., 5., 1., 24.,
          25., 2., 2., 50., 0., 1., 4., 35., 64., 6., 2., 1., 105., 6.,
          1., 0., 0., 3., 7., 24., 164., 20., 6., 4., 0., 0., 0., 54.,
          82., 18., 38., 65., 26., 0., 0., 18., 2., 8., 7., 49., 86., 1.,
          0., 0., 80., 1., 0., 0., 0., 0., 17., 65., 164., 69., 16., 14.,
          2., 2., 1., 43., 55., 53., 73., 76., 12., 10., 22., 32., 25.,
          24., 8., 46., 94., 1., 3., 15., 59., 1., 0., 0., 0., 0., 7.,
          87., 105., 4., 0., 0., 1., 1., 2., 127., 54., 4., 0., 7., 15.,
          6., 26., 55., 6., 1., 0., 55., 101., 1., 4., 15., 1., 135.,
          135., 1., 1., 1., 1., 0., 12., 135., 115., 0., 0., 3., 4., 1.,
          7., 29., 40., 4., 1., 8., 6., 3., 0., 0., 15., 5., 2., 8., 1.,
          0., 28., 112., 65., 8., 6., 14., 17., 3., 135., 135., 38., 0.,
          0., 1., 3., 55., 63., 25., 14., 1., 0., 14., 49., 68., 0., 1.,
          9., 3., 0., 20., 29., 0., 20., 7., 0., 1., 1., 50., 135., 46.,
          135., 32., 5., 0., 0., 12., 92., 129., 75., 75., 35., 1., 0.,
          4., 15., 19., 0., 18., 6., 0., 0., 6., 13., 0., 1., 10., 11.,
          1., 0., 6., 135., 53., 13., 4., 10., 8., 15., 17., 99., 55.,
          7., 27., 15., 2., 5., 5., 22., 15., 0., 10., 4., 0., 0., 1.,
          3., 0., 8., 19., 39., 27., 7., 2., 0., 4., 10., 24., 43., 24.,
          2., 0., 0., 4., 3., 2., 3., 14., 2., 0., 0., 0., 0., 0., 0.,
          3., 1., 0., 0., 0., 22., 55., 131., 131., 44., 3., 1., 3.,
          131., 131., 122., 19., 5., 0., 0., 9., 28., 10., 8., 103., 54.,
          1., 0., 2., 0., 0., 6., 68., 22., 0., 0., 0., 54., 8., 9., 64.,
          69., 121., 49., 37., 131., 24., 7., 25., 11., 7., 7., 76., 27.,
          6., 16., 131., 85., 0., 0., 1., 0., 2., 67., 96., 11., 0., 0.,
          0., 16., 14., 26., 27., 30., 47., 19., 72., 63., 1., 1., 68.,
          27., 4., 5., 86., 3., 1., 4., 131., 92., 0., 0., 2., 2., 5.,
          18., 23., 8., 0., 2., 5., 77., 21., 0., 0., 0., 2., 6., 16.,
          57., 28., 12., 44., 23., 10., 16., 9., 3., 12., 49., 42., 15.,
          9., 39., 5., 3., 12., 49., 35., 5., 2., 55., 31., 70., 39., 1.,
          0., 2., 0., 1., 10., 140., 19., 5., 12., 6., 19., 93., 87., 7.,
          0., 4., 8., 3., 100., 143., 58., 7., 1., 2., 1., 0., 5., 141.,
          143., 63., 66., 7., 1., 8., 1., 0., 0., 143., 69., 1., 0., 0.,
          9., 12., 36., 65., 3., 0., 0., 0., 85., 116., 47., 6., 0., 0.,
          0., 0., 6., 74., 120., 37., 20., 5., 0., 13., 11., 5., 3.,
          143., 72., 1., 0., 0., 0., 1., 4., 73., 20., 0., 0., 0., 3.,
          21., 11., 1., 0., 0., 0., 0., 1., 11., 15., 0., 0., 35., 13.,
          0., 0., 0., 0., 19., 21., 101., 36., 4., 0., 0., 3., 65., 11.,
          9., 8., 8., 22., 20., 62., 19., 20., 6., 3., 9., 58., 60., 75.,
          0., 0., 5., 3., 0., 0., 0., 0., 80., 59., 19., 7., 2., 1., 1.,
          6., 151., 35., 1., 0., 1., 16., 19., 114., 35., 3., 13., 11.,
          79., 140., 37., 50., 0., 0., 0., 0., 0., 0., 0., 0., 81., 12.,
          0., 1., 1., 1., 6., 21., 151., 103., 0., 0., 2., 4., 3., 30.,
          77., 37., 2., 5., 150., 100., 4., 9., 0., 0., 0., 0., 0., 0.,
          0., 0., 19., 8., 1., 1., 0., 0., 3., 4., 151., 148., 2., 1.,
          0., 0., 1., 2., 95., 75., 3., 5., 68., 21., 0., 0., 3., 42.,
          108., 8., 0., 0., 0., 0., 52., 70., 35., 4., 1., 1., 3., 8.,
          18., 6., 1., 0., 1., 3., 27., 45., 10., 10., 7., 27., 28., 46.,
          21., 11., 48., 70., 159., 3., 0., 4., 34., 29., 159., 84., 34.,
          2., 0., 2., 14., 85., 57., 8., 9., 12., 9., 9., 57., 101., 9.,
          7., 22., 32., 69., 67., 23., 20., 82., 15., 1., 1., 4., 36.,
          50., 52., 159., 59., 4., 2., 2., 13., 15., 39., 78., 33., 20.,
          52., 26., 6., 8., 14., 2., 2., 21., 35., 52., 33., 20., 7.,
          63., 23., 1., 2., 22., 55., 11., 44., 159., 19., 15., 2., 2.,
          3., 10., 138., 61., 13., 38., 16., 17., 6., 3., 20., 20., 17.,
          49., 11., 7., 33., 27., 21., 134., 50., 1., 0., 0., 0., 0., 2.,
          134., 85., 7., 3., 3., 0., 0., 2., 8., 16., 21., 17., 75., 7.,
          0., 0., 0., 0., 1., 3., 134., 18., 0., 0., 134., 26., 1., 2.,
          2., 4., 1., 7., 134., 47., 5., 1., 3., 3., 3., 41., 15., 14.,
          24., 16., 64., 17., 5., 13., 0., 1., 3., 9., 134., 28., 0., 0.,
          134., 68., 5., 5., 2., 2., 4., 4., 134., 72., 0., 2., 7., 1.,
          1., 12., 24., 9., 2., 11., 84., 13., 2., 3., 0., 0., 1., 2.,
          131., 29., 1., 0., 65., 28., 1., 1., 1., 4., 10., 6., 134.,
          123., 4., 7., 2., 0., 0., 1., 26., 31., 22., 54., 33., 2., 1.,
          2., 4., 10., 6., 3., 90., 15., 0., 1., 126., 9., 0., 0., 0.,
          0., 0., 3., 95., 4., 1., 8., 66., 22., 3., 8., 126., 5., 0.,
          2., 30., 9., 2., 19., 17., 1., 0., 6., 74., 26., 1., 5., 126.,
          16., 1., 1., 0., 0., 0., 2., 110., 22., 11., 66., 43., 16., 3.,
          5., 126., 8., 3., 16., 19., 7., 2., 32., 22., 1., 0., 16.,
          117., 28., 1., 9., 126., 22., 1., 0., 0., 0., 1., 8., 126., 5.,
          1., 7., 35., 89., 18., 26., 126., 60., 15., 16., 20., 27., 4.,
          10., 12., 14., 19., 121., 76., 2., 0., 1., 126., 13., 0., 0.,
          0., 0., 0., 6., 126., 2., 0., 0., 56., 41., 8., 15., 16., 18.,
          7., 6., 34., 36., 40., 48., 1., 4., 8., 43., 27., 86., 30., 6.,
          3., 0., 0., 0., 0., 0., 68., 122., 8., 0., 0., 0., 0., 0., 56.,
          122., 0., 0., 0., 0., 0., 0., 67., 122., 0., 0., 3., 9., 0.,
          0., 81., 80., 19., 0., 0., 0., 0., 15., 115., 79., 122., 14.,
          4., 1., 0., 4., 28., 122., 12., 7., 26., 37., 0., 0., 28.,
          110., 0., 0., 32., 76., 0., 0., 13., 29., 3., 0., 7., 30., 15.,
          43., 100., 29., 54., 56., 32., 27., 19., 22., 20., 31., 17.,
          30., 65., 43., 0., 0., 7., 63., 1., 0., 40., 96., 0., 0., 20.,
          46., 8., 2., 47., 94., 7., 4., 10., 10., 37., 7., 29., 50., 7.,
          1., 4., 79., 10., 3., 83., 122., 0., 0., 2., 53., 0., 0., 88.,
          122., 0., 0., 1., 3. ]
      - [ 11., 1., 0., 16., 123., 55., 1., 1., 125., 17., 0., 2., 14.,
          14., 1., 17., 42., 3., 0., 66., 114., 1., 0., 14., 14., 3., 0.,
          55., 92., 0., 0., 1., 4., 1., 2., 52., 109., 43., 0., 1., 125.,
          9., 1., 16., 45., 16., 1., 20., 51., 2., 0., 95., 125., 3., 0.,
          4., 9., 8., 0., 33., 71., 3., 0., 0., 7., 4., 3., 110., 79.,
          0., 0., 0., 125., 47., 2., 21., 25., 5., 0., 7., 47., 9., 0.,
          15., 125., 104., 1., 3., 1., 1., 0., 4., 67., 32., 0., 1., 8.,
          2., 1., 55., 59., 0., 0., 5., 125., 16., 1., 4., 4., 2., 0.,
          48., 58., 3., 0., 2., 125., 50., 2., 12., 0., 0., 0., 1., 90.,
          32., 18., 18., 18., 8., 10., 55., 62., 10., 11., 38., 8., 3.,
          3., 48., 136., 8., 6., 16., 136., 5., 0., 4., 32., 4., 12.,
          136., 54., 1., 0., 0., 0., 0., 0., 29., 4., 5., 6., 40., 136.,
          43., 10., 7., 35., 27., 6., 31., 136., 67., 11., 16., 136.,
          60., 1., 3., 17., 13., 10., 94., 33., 2., 0., 0., 0., 0., 0.,
          12., 21., 6., 3., 55., 136., 8., 1., 4., 59., 9., 3., 13., 59.,
          134., 125., 53., 77., 4., 0., 0., 7., 45., 129., 128., 10., 0.,
          0., 0., 1., 1., 1., 6., 5., 0., 0., 3., 14., 0., 0., 1., 13.,
          0., 0., 1., 2., 4., 17., 8., 0., 0., 0., 0., 3., 8., 20., 2.,
          0., 0., 0., 0., 1., 1., 0., 0., 0., 0., 0., 0., 0., 0., 0., 0.,
          5., 10., 17., 2., 0., 0., 0., 0., 1., 7., 17., 6., 6., 0., 0.,
          0., 3., 0., 0., 2., 3., 0., 0., 1., 0., 1., 1., 7., 11., 0.,
          0., 0., 10., 48., 119., 130., 74., 3., 0., 0., 55., 130., 124.,
          58., 49., 6., 2., 12., 126., 2., 1., 10., 25., 5., 3., 76., 0.,
          0., 0., 29., 36., 0., 0., 0., 27., 12., 14., 120., 130., 37.,
          1., 8., 130., 58., 11., 14., 32., 19., 7., 63., 130., 24., 10.,
          3., 4., 4., 6., 54., 0., 0., 1., 67., 80., 0., 0., 0., 63., 4.,
          24., 130., 86., 2., 0., 19., 130., 5., 5., 7., 5., 3., 7.,
          103., 47., 9., 22., 48., 14., 5., 10., 54., 34., 77., 30., 55.,
          18., 5., 0., 0., 93., 132., 5., 4., 57., 31., 1., 1., 111.,
          11., 0., 1., 47., 45., 6., 45., 81., 8., 1., 2., 4., 2., 2.,
          40., 45., 13., 0., 4., 35., 82., 3., 5., 132., 40., 0., 1.,
          28., 23., 2., 20., 103., 63., 3., 4., 104., 44., 1., 11., 132.,
          65., 3., 7., 7., 10., 5., 9., 40., 1., 8., 41., 53., 26., 1.,
          8., 132., 9., 3., 9., 26., 7., 1., 28., 75., 10., 2., 19.,
          110., 23., 23., 70., 123., 14., 10., 38., 27., 1., 4., 65.,
          56., 2., 17., 22., 1., 0., 0., 23., 132., 4., 1., 2., 3., 1.,
          2., 51., 32., 20., 17., 5., 7., 6., 23., 75., 7., 6., 18., 58.,
          54., 1., 4., 37., 127., 91., 2., 2., 21., 7., 0., 4., 65., 14.,
          1., 2., 83., 48., 5., 37., 127., 8., 0., 0., 2., 2., 3., 94.,
          17., 9., 5., 5., 6., 1., 3., 23., 127., 8., 0., 1., 16., 10.,
          2., 58., 92., 34., 2., 8., 127., 30., 1., 19., 127., 74., 2.,
          3., 13., 6., 2., 21., 23., 7., 11., 12., 16., 25., 12., 14.,
          127., 4., 2., 11., 16., 3., 1., 59., 57., 6., 2., 38., 119.,
          15., 26., 65., 127., 14., 13., 33., 19., 2., 9., 107., 15.,
          17., 65., 65., 7., 5., 2., 2., 103., 3., 1., 2., 3., 2., 3.,
          61., 22., 18., 11., 5., 9., 8., 42., 92., 10., 5., 14., 77.,
          57., 1., 12., 65., 6., 23., 20., 46., 23., 0., 0., 0., 24.,
          17., 1., 32., 51., 3., 0., 6., 101., 86., 1., 1., 1., 0., 2.,
          48., 123., 40., 0., 0., 0., 0., 6., 66., 58., 2., 0., 0., 0.,
          0., 1., 32., 8., 14., 1., 5., 42., 110., 77., 1., 54., 123.,
          7., 0., 0., 27., 79., 12., 123., 123., 5., 0., 0., 1., 8., 33.,
          53., 16., 3., 0., 0., 0., 0., 5., 0., 49., 60., 3., 1., 76.,
          116., 3., 15., 34., 30., 0., 0., 76., 123., 34., 123., 19., 4.,
          0., 0., 6., 64., 123., 17., 7., 5., 0., 0., 0., 1., 2., 2.,
          64., 85., 3., 4., 3., 2., 3., 71., 122., 82., 1., 1., 3., 9.,
          11., 81., 27., 2., 0., 0., 1., 16., 45., 0., 0., 0., 0., 0.,
          1., 4., 1., 0., 5., 32., 5., 1., 0., 0., 0., 0., 0., 28., 20.,
          6., 0., 0., 0., 2., 4., 15., 6., 5., 0., 0., 0., 6., 7., 7.,
          0., 0., 0., 0., 0., 1., 27., 133., 45., 2., 0., 0., 0., 7.,
          20., 133., 133., 14., 0., 0., 0., 68., 113., 133., 27., 7., 0.,
          0., 2., 11., 26., 123., 68., 18., 0., 0., 0., 1., 46., 91.,
          100., 4., 0., 0., 0., 63., 13., 39., 133., 29., 0., 0., 4.,
          133., 37., 14., 23., 35., 0., 0., 21., 17., 3., 22., 81., 133.,
          2., 1., 2., 0., 15., 42., 32., 1., 11., 39., 4., 59., 1., 8.,
          39., 2., 6., 39., 53., 133., 4., 1., 14., 39., 6., 3., 70., 6.,
          3., 2., 38., 123., 13., 4., 2., 12., 3., 2., 0., 0., 0., 3.,
          15., 25., 23., 18., 0., 0., 0., 0., 24., 4., 15., 9., 0., 0.,
          0., 0., 1., 0., 0., 0., 0., 0., 0., 0., 0., 4., 3., 44., 96.,
          9., 2., 6., 3., 18., 72., 132., 71., 0., 0., 0., 1., 110.,
          132., 70., 15., 4., 0., 0., 6., 14., 4., 1., 91., 23., 0., 0.,
          2., 0., 0., 20., 132., 78., 13., 0., 0., 99., 22., 67., 65.,
          11., 4., 0., 8., 132., 57., 11., 42., 51., 0., 0., 28., 19.,
          3., 1., 132., 127., 2., 1., 26., 0., 0., 1., 19., 96., 39., 0.,
          0., 83., 3., 0., 2., 31., 15., 0., 60., 132., 16., 0., 22.,
          73., 1., 0., 92., 24., 2., 0., 21., 101., 7., 6., 86., 3., 31.,
          120., 28., 0., 0., 0., 0., 41., 116., 66., 2., 0., 0., 0., 1.,
          24., 15., 2., 38., 8., 0., 0., 2., 0., 0., 0., 25., 5., 0., 0.,
          0., 31., 16., 80., 56., 2., 0., 0., 2., 134., 72., 23., 9., 6.,
          0., 0., 26., 60., 9., 2., 134., 101., 0., 0., 6., 12., 0., 1.,
          95., 30., 0., 0., 35., 54., 3., 2., 5., 14., 7., 0., 10., 134.,
          35., 1., 8., 20., 0., 0., 43., 38., 9., 1., 58., 134., 6., 3.,
          18., 34., 0., 0., 10., 27., 4., 4., 134., 44., 0., 0., 2., 19.,
          6., 1., 74., 117., 1., 0., 14., 38., 1., 1., 134., 37., 4., 1.,
          43., 110., 3., 3., 41., 42., 2., 0., 0., 4., 1., 8., 129., 0.,
          0., 0., 0., 0., 0., 0., 0., 3., 0., 0., 0., 0., 0., 6., 4.,
          35., 46., 8., 3., 0., 0., 8., 5., 6., 18., 50., 49., 27., 5.,
          0., 0., 25., 1., 0., 0., 25., 29., 0., 5., 125., 20., 6., 4.,
          5., 13., 64., 124., 58., 69., 47., 85., 47., 50., 98., 42., 6.,
          31., 125., 125., 31., 2., 0., 0., 25., 2., 0., 5., 120., 119.,
          9., 9., 125., 95., 53., 30., 12., 28., 17., 55., 12., 22., 83.,
          125., 56., 38., 13., 6., 0., 2., 9., 98., 61., 23., 1., 0., 4.,
          1., 1., 11., 59., 98., 25., 8., 50., 19., 3., 4., 12., 43.,
          15., 30., 10., 3., 4., 13., 22., 112., 38., 4., 0., 0., 0., 6.,
          56., 77., 3., 0., 15., 40., 14., 1., 10., 111., 6., 1., 23.,
          117., 63., 1., 3., 30., 1., 0., 52., 117., 6., 17., 20., 3.,
          9., 3., 1., 11., 10., 67., 53., 2., 3., 1., 53., 79., 1., 1.,
          21., 114., 7., 1., 50., 52., 5., 1., 79., 117., 5., 8., 117.,
          107., 1., 5., 28., 16., 2., 22., 13., 10., 2., 15., 104., 60.,
          0., 1., 99., 117., 2., 4., 25., 7., 0., 0., 31., 20., 2., 4.,
          90., 58., 20., 46., 117., 13., 8., 5., 7., 10., 10., 107., 14.,
          2., 11., 29., 106., 45., 0., 3., 104., 89., 1., 2., 4., 1., 0.,
          0., 55., 43., 2., 2., 10., 11., 6., 10., 28., 35., 44., 25.,
          4., 2., 1., 10., 1., 1., 30., 64., 18., 2., 11., 10., 93., 80.,
          27., 11., 1., 0., 0., 0., 72., 51., 1., 10., 109., 19., 0., 0.,
          16., 0., 0., 13., 115., 37., 1., 9., 109., 0., 0., 0., 1., 1.,
          0., 38., 70., 76., 0., 2., 1., 0., 0., 1., 124., 124., 2., 2.,
          52., 28., 0., 1., 37., 4., 0., 0., 124., 83., 2., 18., 116.,
          2., 0., 0., 3., 3., 2., 71., 57., 12., 1., 0., 3., 10., 0., 5.,
          124., 17., 0., 0., 32., 7., 0., 30., 42., 18., 1., 1., 124.,
          41., 0., 6., 93., 102., 1., 1., 11., 3., 0., 14., 61., 0., 0.,
          1., 20., 14., 0., 12., 124., 1., 0., 4., 13., 4., 0., 36., 11.,
          4., 1., 17., 124., 48., 0., 3., 89., 51., 1., 2., 31., 12., 0.,
          8., 0., 0., 0., 0., 0., 0., 0., 0., 0., 3., 7., 0., 0., 0., 0.,
          0., 0., 5., 8., 0., 0., 0., 0., 0., 0., 0., 0., 0., 0., 0., 0.,
          0., 1., 4., 4., 4., 49., 60., 1., 0., 12., 51., 139., 70., 47.,
          17., 0., 1., 64., 121., 101., 9., 2., 0., 0., 6., 1., 0., 0.,
          0., 0., 0., 0., 0., 0., 0., 0., 2., 89., 139., 30., 0., 57.,
          14., 19., 34., 139., 133., 4., 9., 139., 69., 11., 5., 14., 9.,
          3., 34., 13., 5., 0., 0., 0., 0., 0., 2., 0., 0., 0., 0., 117.,
          139., 15., 0., 13., 2., 1., 8., 139., 139., 19., 7., 139., 78.,
          7., 10., 14., 27., 18., 21., 20., 20., 0., 0., 0., 0., 0., 0.,
          114., 1., 1., 13., 9., 0., 0., 32., 137., 21., 6., 18., 16.,
          2., 0., 22., 24., 4., 5., 44., 75., 17., 14., 14., 28., 0., 0.,
          1., 11., 15., 76., 116., 137., 1., 1., 4., 1., 3., 3., 51.,
          137., 5., 1., 5., 14., 21., 5., 51., 58., 11., 1., 13., 62.,
          54., 6., 13., 121., 25., 9., 6., 1., 0., 2., 21., 137., 12.,
          1., 3., 3., 4., 2., 14., 137., 28., 2., 10., 21., 3., 0., 6.,
          30., 27., 7., 34., 123., 10., 0., 1., 36., 64., 65., 30., 4.,
          0., 1., 2., 137., 9., 1., 3., 7., 1., 0., 10., 137., 41., 0.,
          1., 8., 10., 3., 5., 25., 10., 3., 4., 68., 97., 6., 6., 10.,
          7., 19., 4., 8., 17., 30., 60., 37., 9., 1., 1., 1., 5., 47.,
          70., 25., 7., 9., 5., 4., 24., 95., 28., 119., 72., 23., 1.,
          0., 1., 13., 37., 11., 27., 77., 4., 0., 0., 7., 16., 10., 36.,
          121., 33., 1., 2., 21., 48., 9., 23., 121., 115., 10., 7., 26.,
          6., 121., 121., 82., 9., 1., 1., 3., 11., 89., 50., 4., 0., 0.,
          0., 9., 28., 32., 121., 100., 16., 2., 1., 1., 1., 42., 30.,
          38., 46., 28., 13., 3., 11., 121., 39., 11., 4., 3., 3., 2.,
          30., 98., 102., 9., 3., 3., 2., 1., 5., 66., 40., 1., 0., 11.,
          23., 7., 3., 69., 30., 2., 1., 2., 3., 1., 18., 121., 3., 3.,
          8., 27., 3., 1., 53., 22., 115., 26., 22., 41., 2., 0., 3.,
          19., 51., 2., 0., 0., 13., 6., 2., 17., 56., 26., 9., 0., 0.,
          0., 1., 4., 17., 28., 4., 0., 0., 0., 0., 0., 0., 0., 0., 0.,
          0., 0., 0., 42., 34., 20., 7., 5., 14., 6., 11., 42., 28., 61.,
          94., 52., 40., 4., 10., 124., 65., 53., 34., 17., 7., 3., 12.,
          8., 2., 5., 22., 13., 0., 0., 0., 83., 89., 8., 0., 2., 4., 1.,
          16., 38., 41., 8., 8., 38., 124., 43., 28., 96., 9., 2., 30.,
          97., 38., 53., 99., 3., 39., 42., 66., 99., 1., 0., 1., 32.,
          124., 124., 6., 1., 15., 9., 1., 8., 124., 124., 7., 0., 5.,
          9., 4., 8., 124., 26., 13., 124., 22., 12., 14., 0., 31., 15.,
          26., 124., 67., 1., 0., 80., 27., 1., 1., 83., 59., 5., 28.,
          129., 26., 0., 1., 7., 6., 4., 95., 32., 20., 10., 10., 15.,
          7., 6., 31., 30., 28., 3., 0., 0., 0., 0., 7., 121., 28., 3.,
          10., 129., 42., 1., 21., 129., 121., 5., 6., 36., 10., 2., 22.,
          59., 15., 36., 40., 20., 40., 21., 19., 17., 12., 20., 4., 0.,
          1., 4., 13., 80., 7., 3., 31., 104., 19., 30., 64., 129., 11.,
          8., 40., 54., 5., 22., 129., 33., 36., 81., 129., 36., 2., 1.,
          5., 4., 23., 26., 4., 0., 0., 0., 0., 43., 25., 16., 2., 5.,
          5., 21., 62., 13., 17., 44., 92., 62., 2., 14., 76., 3., 20.,
          32., 103., 69., 1., 0., 1., 2., 11., 10., 2., 0., 0., 0., 0.,
          3., 8., 71., 54., 2., 0., 0., 0., 121., 125., 25., 15., 1., 1.,
          3., 9., 41., 58., 33., 71., 60., 34., 42., 21., 0., 0., 0.,
          14., 28., 14., 31., 4., 4., 26., 54., 9., 0., 0., 0., 0., 95.,
          133., 41., 2., 0., 0., 0., 10., 133., 79., 8., 5., 3., 4., 55.,
          75., 19., 3., 1., 1., 1., 3., 56., 24., 2., 8., 13., 3., 2.,
          5., 18., 34., 101., 17., 12., 2., 0., 0., 19., 133., 133., 90.,
          30., 0., 0., 0., 0., 72., 19., 29., 42., 0., 0., 0., 0., 1.,
          0., 0., 0., 0., 1., 11., 133., 75., 21., 3., 0., 0., 0., 2.,
          133., 108., 34., 47., 17., 0., 0., 1., 81., 56., 3., 13., 20.,
          0., 0., 0., 19., 11., 48., 7., 4., 4., 14., 17., 5., 4., 129.,
          31., 5., 5., 14., 4., 1., 3., 22., 129., 35., 21., 37., 4., 1.,
          1., 6., 110., 49., 20., 31., 8., 1., 1., 44., 21., 4., 3., 6.,
          8., 3., 10., 129., 13., 0., 1., 37., 16., 2., 26., 30., 59.,
          20., 20., 129., 54., 1., 5., 90., 129., 46., 7., 9., 3., 1.,
          9., 80., 77., 2., 1., 0., 0., 0., 5., 129., 103., 8., 1., 14.,
          5., 0., 12., 18., 50., 17., 5., 129., 108., 0., 1., 82., 98.,
          0., 1., 30., 41., 0., 1., 56., 69., 0., 0., 0., 0., 1., 4.,
          54., 117., 19., 2., 0., 0., 0., 0., 4., 93., 43., 11., 34.,
          23., 0., 0., 9., 28., 4., 11., 42., 37., 6., 1., 31., 16., 3.,
          1., 59., 56., 1., 4., 79., 28., 1., 0., 10., 66., 14., 19., 1.,
          0., 0., 0., 57., 105., 23., 2., 0., 1., 2., 3., 78., 54., 0.,
          0., 24., 11., 0., 8., 131., 60., 0., 1., 131., 47., 0., 3.,
          25., 35., 6., 10., 24., 2., 0., 30., 131., 79., 5., 4., 0., 0.,
          0., 11., 130., 40., 0., 0., 13., 0., 1., 9., 72., 131., 39.,
          14., 131., 9., 1., 18., 46., 52., 10., 47., 29., 5., 2., 105.,
          131., 3., 0., 2., 4., 3., 2., 18., 45., 35., 3., 2., 17., 9.,
          2., 1., 47., 118., 16., 10., 28., 1., 1., 12., 79., 76., 19.,
          27., 9., 5., 2., 47., 131., 2., 1., 2., 11., 9., 3., 9., 15.,
          12., 6., 4. ]
      - [ 0., 0., 29., 13., 0., 0., 0., 0., 1., 2., 45., 23., 1., 1., 2.,
          2., 0., 0., 84., 45., 8., 11., 3., 1., 0., 8., 121., 15., 2.,
          1., 0., 0., 22., 14., 121., 65., 0., 0., 4., 2., 111., 42.,
          74., 22., 3., 11., 25., 64., 8., 5., 31., 50., 117., 105., 38.,
          23., 4., 5., 50., 12., 39., 15., 27., 62., 22., 11., 11., 5.,
          0., 31., 90., 10., 83., 121., 65., 12., 2., 17., 42., 18., 8.,
          24., 78., 106., 66., 11., 43., 59., 34., 0., 2., 10., 19., 4.,
          32., 121., 1., 0., 0., 0., 0., 31., 113., 24., 1., 8., 7., 5.,
          0., 23., 121., 49., 0., 2., 19., 31., 1., 1., 121., 98., 8.,
          1., 38., 50., 1., 0., 28., 73., 2., 10., 8., 3., 1., 4., 12.,
          14., 0., 7., 40., 42., 2., 8., 27., 7., 2., 51., 44., 9., 0.,
          0., 16., 9., 1., 5., 6., 4., 0., 0., 5., 3., 1., 7., 6., 23.,
          18., 10., 1., 0., 8., 22., 52., 131., 128., 1., 0., 1., 131.,
          131., 63., 39., 16., 1., 0., 6., 31., 16., 6., 6., 1., 1., 2.,
          2., 1., 1., 45., 131., 26., 5., 0., 0., 28., 9., 82., 131.,
          131., 6., 0., 8., 131., 39., 5., 12., 31., 4., 0., 40., 53.,
          8., 1., 0., 0., 0., 1., 5., 0., 2., 50., 131., 78., 6., 0., 0.,
          49., 37., 126., 59., 16., 5., 1., 5., 131., 131., 27., 4., 1.,
          0., 0., 4., 19., 34., 12., 0., 0., 0., 0., 1., 0., 0., 0., 0.,
          22., 75., 51., 3., 4., 1., 0., 1., 115., 128., 47., 13., 45.,
          9., 1., 1., 11., 15., 112., 128., 83., 3., 0., 0., 1., 7., 17.,
          128., 0., 0., 0., 1., 62., 36., 2., 0., 41., 14., 0., 6., 128.,
          104., 9., 14., 128., 25., 0., 2., 16., 8., 39., 128., 42., 12.,
          3., 0., 1., 1., 6., 78., 1., 1., 2., 2., 29., 16., 2., 3., 18.,
          2., 1., 1., 128., 128., 60., 29., 128., 5., 0., 0., 7., 29.,
          58., 128., 21., 5., 2., 0., 1., 8., 12., 20., 0., 0., 1., 1.,
          0., 2., 4., 7., 0., 0., 7., 7., 2., 47., 46., 10., 3., 3., 24.,
          21., 1., 8., 44., 43., 1., 8., 24., 21., 3., 4., 7., 5., 1.,
          1., 2., 12., 19., 13., 7., 1., 108., 25., 2., 3., 1., 6., 6.,
          27., 142., 66., 0., 0., 5., 6., 1., 19., 10., 5., 2., 15., 49.,
          17., 0., 0., 14., 1., 2., 5., 44., 30., 4., 12., 139., 3., 2.,
          3., 7., 3., 21., 142., 101., 16., 1., 2., 4., 14., 68., 142.,
          9., 6., 3., 22., 115., 14., 4., 3., 30., 7., 2., 5., 58., 16.,
          2., 5., 142., 48., 0., 0., 11., 3., 4., 47., 102., 16., 0., 0.,
          26., 30., 25., 26., 0., 0., 0., 2., 142., 38., 2., 0., 15., 3.,
          0., 3., 62., 24., 5., 9., 142., 59., 0., 2., 16., 1., 0., 0.,
          122., 30., 0., 4., 26., 1., 0., 0., 0., 0., 0., 48., 124., 6.,
          0., 0., 29., 10., 19., 31., 2., 2., 2., 15., 14., 7., 7., 33.,
          52., 67., 9., 13., 101., 75., 5., 13., 18., 29., 15., 69.,
          120., 64., 9., 3., 1., 0., 0., 33., 56., 14., 30., 25., 4., 2.,
          2., 30., 34., 18., 100., 108., 27., 41., 11., 10., 120., 27.,
          20., 27., 21., 16., 14., 120., 50., 56., 48., 52., 58., 1., 1.,
          54., 29., 60., 31., 10., 5., 6., 9., 7., 51., 21., 18., 26.,
          29., 104., 61., 14., 120., 120., 10., 13., 30., 24., 10., 13.,
          30., 63., 13., 56., 120., 15., 1., 1., 56., 48., 3., 0., 0.,
          0., 1., 5., 80., 55., 4., 7., 55., 38., 4., 4., 78., 86., 5.,
          10., 63., 26., 1., 1., 66., 42., 2., 6., 30., 68., 8., 6., 21.,
          9., 5., 77., 50., 4., 1., 3., 129., 93., 8., 7., 1., 1., 1.,
          31., 51., 20., 1., 0., 12., 49., 23., 15., 0., 0., 1., 0., 5.,
          126., 64., 1., 10., 7., 7., 96., 45., 4., 1., 0., 129., 76.,
          23., 34., 5., 0., 0., 29., 105., 18., 82., 59., 1., 2., 6.,
          23., 26., 40., 74., 40., 0., 18., 24., 5., 15., 4., 2., 38.,
          69., 75., 17., 4., 129., 94., 52., 40., 12., 18., 11., 15.,
          63., 56., 129., 129., 11., 2., 0., 4., 129., 50., 56., 27., 0.,
          0., 0., 44., 17., 4., 3., 46., 45., 45., 13., 7., 30., 14., 8.,
          21., 32., 30., 12., 29., 39., 28., 12., 21., 46., 39., 4., 6.,
          59., 47., 3., 0., 0., 0., 0., 5., 18., 9., 27., 11., 12., 31.,
          15., 31., 5., 15., 17., 15., 17., 42., 26., 5., 6., 7., 5.,
          25., 17., 40., 125., 23., 16., 47., 2., 1., 1., 46., 103., 6.,
          6., 13., 97., 25., 4., 8., 4., 4., 32., 88., 76., 16., 6., 18.,
          13., 12., 125., 82., 4., 0., 0., 16., 102., 73., 26., 3., 1.,
          0., 0., 125., 125., 16., 9., 2., 3., 1., 1., 16., 43., 44.,
          39., 16., 6., 1., 3., 112., 125., 69., 125., 68., 1., 0., 0.,
          12., 14., 88., 53., 21., 7., 1., 2., 22., 14., 5., 0., 0., 0.,
          0., 0., 4., 22., 12., 4., 3., 0., 0., 1., 125., 84., 12., 91.,
          58., 0., 0., 1., 90., 58., 42., 57., 17., 3., 10., 4., 1., 5.,
          23., 34., 6., 0., 1., 8., 20., 4., 15., 84., 13., 1., 1., 35.,
          18., 3., 20., 149., 36., 0., 0., 11., 7., 8., 61., 12., 3., 0.,
          15., 124., 24., 6., 8., 24., 2., 0., 1., 13., 27., 11., 54.,
          75., 13., 1., 10., 107., 25., 7., 38., 149., 63., 0., 5., 27.,
          2., 0., 12., 35., 7., 0., 76., 149., 4., 0., 1., 27., 23., 2.,
          3., 18., 6., 2., 15., 51., 13., 3., 11., 70., 30., 22., 65.,
          149., 5., 3., 4., 18., 7., 7., 149., 30., 2., 3., 14., 149.,
          55., 0., 7., 24., 15., 1., 5., 18., 2., 1., 4., 93., 28., 0.,
          0., 1., 8., 16., 63., 85., 7., 20., 44., 12., 1., 3., 92., 10.,
          19., 23., 20., 56., 57., 0., 1., 22., 0., 7., 97., 15., 0.,
          10., 116., 4., 2., 55., 122., 11., 0., 9., 16., 88., 22., 21.,
          60., 3., 0., 11., 17., 82., 8., 0., 0., 0., 0., 0., 10., 10.,
          6., 7., 122., 122., 1., 3., 12., 74., 20., 13., 94., 35., 8.,
          55., 113., 64., 9., 7., 10., 21., 45., 73., 53., 79., 4., 0.,
          0., 1., 1., 1., 10., 11., 8., 3., 35., 122., 18., 0., 2., 75.,
          122., 89., 22., 59., 8., 3., 16., 62., 63., 83., 26., 20., 12.,
          4., 14., 19., 2., 0., 0., 1., 0., 0., 4., 0., 0., 0., 104.,
          122., 2., 0., 0., 55., 25., 24., 43., 59., 1., 0., 52., 92.,
          21., 11., 0., 0., 0., 0., 63., 2., 0., 0., 0., 0., 0., 0., 0.,
          1., 4., 90., 56., 0., 3., 16., 4., 8., 17., 121., 71., 0., 2.,
          10., 10., 1., 115., 121., 1., 0., 17., 28., 2., 1., 98., 80.,
          2., 1., 17., 58., 1., 25., 12., 121., 74., 0., 0., 4., 6., 98.,
          19., 63., 50., 3., 13., 66., 120., 5., 61., 51., 9., 38., 121.,
          84., 25., 10., 121., 74., 0., 3., 18., 24., 30., 35., 7., 27.,
          2., 0., 7., 121., 29., 121., 59., 18., 10., 3., 3., 49., 77.,
          7., 14., 18., 39., 46., 37., 55., 36., 2., 1., 0., 0., 3., 9.,
          71., 94., 0., 0., 0., 0., 0., 2., 51., 3., 3., 1., 0., 0., 0.,
          0., 24., 20., 0., 0., 0., 0., 0., 1., 25., 15., 0., 0., 0., 0.,
          0., 0., 19., 17., 26., 10., 23., 9., 8., 27., 18., 38., 5.,
          18., 21., 18., 17., 48., 26., 6., 9., 11., 7., 27., 17., 36.,
          123., 28., 15., 52., 3., 1., 0., 47., 117., 7., 8., 16., 90.,
          24., 3., 5., 4., 6., 24., 70., 87., 24., 8., 24., 17., 13.,
          123., 101., 9., 0., 0., 13., 88., 73., 36., 5., 1., 0., 1.,
          123., 123., 17., 7., 2., 3., 1., 0., 5., 24., 34., 25., 9., 4.,
          1., 2., 116., 123., 70., 123., 83., 1., 0., 0., 36., 30., 78.,
          67., 33., 6., 2., 2., 13., 9., 6., 0., 0., 0., 0., 0., 0., 7.,
          6., 1., 1., 0., 0., 0., 111., 69., 11., 54., 40., 0., 0., 0.,
          118., 87., 42., 56., 16., 4., 18., 8., 1., 11., 34., 10., 1.,
          6., 117., 53., 1., 0., 4., 127., 12., 11., 27., 3., 0., 0.,
          71., 82., 44., 7., 0., 0., 2., 3., 57., 3., 11., 1., 8., 26.,
          29., 14., 3., 19., 1., 1., 46., 65., 21., 15., 18., 88., 68.,
          78., 30., 22., 2., 6., 35., 142., 142., 59., 5., 2., 0., 0.,
          13., 40., 17., 1., 0., 6., 13., 9., 15., 5., 2., 3., 31., 18.,
          7., 10., 7., 69., 15., 15., 108., 89., 3., 5., 8., 142., 33.,
          9., 9., 8., 0., 0., 41., 60., 3., 8., 12., 12., 11., 2., 14.,
          2., 0., 1., 58., 44., 4., 2., 2., 79., 20., 3., 91., 47., 2.,
          2., 2., 142., 95., 22., 17., 1., 0., 0., 10., 21., 19., 115.,
          117., 11., 1., 0., 2., 0., 0., 0., 32., 114., 24., 1., 0., 10.,
          5., 0., 34., 91., 9., 22., 11., 121., 62., 0., 0., 5., 3., 22.,
          14., 31., 13., 0., 0., 0., 0., 0., 0., 7., 5., 0., 23., 121.,
          47., 1., 8., 64., 12., 2., 18., 42., 18., 83., 121., 75., 21.,
          3., 11., 25., 65., 112., 43., 47., 22., 1., 1., 2., 2., 1., 2.,
          20., 31., 1., 1., 121., 96., 0., 2., 78., 106., 66., 11., 43.,
          59., 8., 24., 32., 50., 117., 103., 38., 23., 8., 5., 84., 43.,
          8., 10., 3., 1., 0., 0., 39., 48., 1., 0., 28., 74., 8., 1.,
          2., 9., 19., 4., 34., 121., 31., 0., 54., 12., 40., 15., 27.,
          58., 4., 5., 121., 13., 2., 1., 0., 0., 0., 8., 1., 72., 31.,
          0., 3., 47., 8., 2., 13., 121., 47., 0., 0., 2., 3., 18., 5.,
          68., 17., 0., 0., 0., 3., 5., 0., 5., 3., 0., 0., 0., 0., 0.,
          12., 2., 0., 0., 63., 101., 5., 13., 90., 41., 5., 2., 7., 13.,
          43., 121., 13., 55., 31., 29., 51., 46., 54., 37., 1., 108.,
          35., 12., 14., 2., 0., 0., 11., 3., 2., 0., 39., 121., 27., 2.,
          80., 103., 53., 10., 6., 84., 32., 20., 6., 28., 83., 121.,
          55., 21., 32., 6., 8., 106., 15., 37., 17., 11., 18., 2., 0.,
          21., 68., 2., 2., 89., 19., 0., 1., 21., 28., 2., 1., 121.,
          102., 1., 1., 5., 13., 11., 2., 38., 121., 20., 6., 6., 0., 2.,
          1., 94., 110., 9., 9., 6., 13., 58., 35., 1., 0., 1., 143.,
          69., 1., 8., 12., 4., 0., 7., 51., 19., 3., 10., 25., 25., 3.,
          6., 28., 20., 3., 1., 0., 1., 1., 3., 35., 3., 47., 107., 19.,
          8., 3., 17., 143., 26., 2., 9., 16., 4., 2., 88., 64., 32.,
          20., 50., 143., 11., 2., 22., 16., 104., 26., 10., 8., 0., 0.,
          3., 23., 1., 1., 2., 10., 36., 26., 37., 143., 41., 0., 3.,
          19., 3., 5., 60., 82., 23., 5., 30., 143., 33., 1., 14., 40.,
          38., 56., 23., 25., 5., 0., 18., 27., 6., 0., 1., 15., 10., 3.,
          14., 143., 20., 2., 1., 5., 3., 1., 80., 40., 8., 7., 6., 108.,
          112., 1., 13., 6., 18., 51., 28., 71., 98., 0., 0., 70., 11.,
          32., 7., 20., 25., 7., 77., 62., 15., 21., 49., 13., 2., 46.,
          128., 66., 70., 28., 27., 8., 1., 8., 36., 14., 27., 26., 39.,
          15., 1., 0., 1., 128., 21., 4., 22., 41., 6., 2., 35., 90.,
          33., 26., 128., 62., 4., 1., 19., 128., 63., 15., 34., 27.,
          16., 1., 8., 27., 37., 14., 14., 65., 64., 14., 4., 128., 4.,
          1., 15., 20., 14., 5., 62., 64., 3., 2., 21., 119., 68., 11.,
          46., 128., 23., 1., 3., 8., 14., 5., 51., 53., 11., 0., 2.,
          35., 77., 31., 3., 110., 24., 16., 5., 14., 9., 2., 21., 27.,
          16., 22., 12., 49., 30., 7., 15., 128., 46., 1., 0., 1., 4.,
          3., 17., 65., 20., 0., 12., 60., 2., 0., 0., 21., 7., 23., 22.,
          23., 33., 6., 19., 58., 24., 9., 21., 27., 44., 20., 73., 118.,
          52., 14., 7., 1., 0., 5., 81., 19., 28., 16., 30., 21., 3., 0.,
          0., 17., 12., 67., 57., 15., 36., 18., 8., 118., 32., 28., 27.,
          15., 15., 12., 78., 64., 61., 39., 73., 90., 0., 3., 54., 53.,
          118., 23., 17., 22., 29., 3., 1., 62., 28., 1., 2., 37., 61.,
          23., 8., 118., 112., 6., 8., 44., 33., 7., 10., 53., 69., 12.,
          60., 118., 34., 2., 3., 118., 118., 4., 10., 19., 19., 4., 5.,
          56., 33., 8., 13., 34., 8., 3., 7., 89., 45., 5., 20., 56.,
          13., 4., 3., 105., 36., 1., 1., 22., 80., 10., 10., 65., 27.,
          0., 0., 9., 52., 12., 14., 14., 10., 5., 6., 36., 64., 39.,
          19., 17., 3., 0., 7., 98., 99., 5., 1., 151., 24., 0., 3., 14.,
          11., 1., 1., 27., 3., 0., 0., 0., 0., 0., 0., 7., 71., 96.,
          46., 30., 3., 0., 0., 23., 10., 30., 151., 115., 7., 0., 0.,
          151., 28., 6., 29., 15., 1., 0., 4., 36., 1., 0., 0., 0., 0.,
          0., 1., 1., 44., 151., 46., 2., 3., 0., 0., 80., 13., 102.,
          145., 5., 0., 0., 6., 151., 9., 5., 9., 0., 0., 0., 20., 31.,
          0., 0., 0., 0., 0., 0., 2., 5., 2., 23., 6., 27., 22., 1., 0.,
          123., 5., 10., 2., 1., 1., 0., 8., 151., 0., 0., 0., 0., 0.,
          0., 15., 22., 0., 0., 0., 0., 0., 0., 1., 0., 0., 0., 0., 0.,
          0., 0., 0., 0., 2., 14., 56., 11., 0., 0., 0., 51., 35., 20.,
          54., 18., 0., 0., 5., 18., 5., 1., 27., 26., 2., 1., 2., 0.,
          0., 0., 1., 1., 0., 0., 0., 20., 16., 55., 134., 26., 8., 3.,
          2., 134., 101., 52., 80., 19., 2., 2., 31., 61., 19., 3., 68.,
          76., 6., 10., 24., 0., 2., 7., 4., 2., 3., 1., 0., 34., 24.,
          38., 51., 48., 94., 64., 13., 134., 52., 10., 35., 52., 37.,
          25., 48., 64., 83., 16., 74., 114., 1., 1., 8., 1., 3., 14.,
          38., 28., 0., 0., 2., 49., 53., 104., 52., 24., 8., 6., 89.,
          134., 8., 16., 13., 63., 23., 6., 134., 13., 23., 5., 20.,
          134., 56., 5., 8., 0., 3., 28., 75., 3., 0., 0., 0., 63., 66.,
          38., 53., 6., 0., 0., 3., 44., 17., 2., 37., 30., 0., 0., 4.,
          1., 0., 0., 26., 47., 27., 16., 4., 16., 9., 30., 126., 29.,
          14., 6., 2., 129., 64., 29., 38., 7., 3., 3., 37., 80., 17.,
          3., 71., 82., 0., 0., 23., 68., 30., 2., 17., 16., 29., 51.,
          43., 15., 14., 21., 19., 30., 76., 53., 9., 129., 38., 5., 14.,
          20., 31., 20., 36., 58., 37., 12., 80., 129., 0., 0., 6., 96.,
          129., 18., 17., 14., 1., 3., 4., 25., 40., 78., 26., 9., 5.,
          3., 43., 126., 5., 12., 9., 27., 13., 4., 129., 16., 3., 2.,
          19., 129., 39., 3., 17., 27., 92., 25., 14., 30., 26., 5., 1. ]
      - [ 19., 34., 1., 15., 86., 34., 0., 0., 72., 14., 2., 55., 69.,
          9., 0., 0., 130., 34., 1., 3., 4., 0., 0., 0., 13., 2., 0., 4.,
          35., 3., 0., 0., 75., 130., 1., 4., 62., 60., 1., 0., 74., 10.,
          1., 11., 66., 130., 28., 18., 130., 29., 0., 1., 4., 6., 12.,
          49., 22., 3., 0., 11., 41., 9., 0., 3., 130., 101., 0., 0., 4.,
          24., 5., 38., 69., 12., 0., 0., 4., 112., 130., 51., 58., 1.,
          0., 0., 4., 12., 77., 130., 6., 0., 0., 13., 92., 15., 2., 7.,
          130., 18., 4., 0., 12., 8., 1., 54., 56., 54., 14., 0., 0., 1.,
          11., 16., 13., 17., 0., 0., 9., 4., 10., 10., 0., 0., 0., 1.,
          93., 16., 0., 0., 32., 35., 39., 25., 17., 8., 12., 21., 140.,
          18., 18., 11., 1., 1., 37., 118., 9., 0., 0., 1., 0., 3., 46.,
          54., 0., 0., 0., 0., 0., 0., 0., 0., 52., 13., 0., 2., 32.,
          128., 25., 15., 146., 56., 10., 3., 4., 7., 12., 76., 39., 11.,
          44., 24., 5., 26., 46., 29., 0., 0., 7., 2., 0., 1., 2., 0.,
          21., 20., 8., 23., 146., 81., 1., 1., 146., 146., 89., 21.,
          40., 7., 1., 18., 13., 53., 146., 85., 15., 4., 2., 3., 0., 5.,
          85., 11., 0., 0., 0., 0., 12., 10., 25., 108., 66., 3., 0., 3.,
          57., 34., 20., 29., 40., 7., 4., 25., 1., 6., 62., 33., 56.,
          22., 20., 2., 0., 1., 25., 5., 0., 2., 17., 3., 24., 89., 30.,
          1., 2., 10., 21., 12., 12., 53., 143., 25., 0., 5., 27., 17.,
          0., 2., 81., 142., 13., 10., 41., 8., 17., 35., 17., 28., 18.,
          20., 16., 20., 26., 35., 41., 9., 7., 28., 42., 26., 100., 19.,
          34., 3., 2., 27., 143., 143., 9., 2., 8., 7., 10., 117., 143.,
          46., 19., 6., 0., 1., 31., 125., 131., 25., 82., 28., 39., 19.,
          17., 0., 0., 14., 143., 45., 10., 5., 2., 3., 13., 76., 37.,
          15., 5., 34., 43., 43., 45., 11., 1., 2., 0., 4., 77., 68.,
          15., 0., 26., 2., 0., 1., 10., 0., 0., 3., 61., 3., 0., 0., 0.,
          0., 0., 9., 4., 1., 0., 1., 3., 0., 0., 0., 0., 0., 0., 0., 0.,
          0., 0., 0., 0., 0., 3., 34., 94., 62., 49., 1., 44., 22., 9.,
          24., 15., 69., 63., 8., 114., 53., 0., 0., 2., 3., 2., 28.,
          33., 4., 1., 3., 6., 21., 8., 19., 0., 0., 0., 1., 34., 72.,
          75., 12., 25., 5., 0., 20., 135., 92., 44., 4., 135., 16., 0.,
          8., 31., 5., 0., 51., 40., 0., 0., 0., 9., 18., 5., 44., 0.,
          2., 2., 57., 66., 23., 7., 1., 34., 3., 1., 135., 135., 2., 1.,
          2., 135., 53., 5., 11., 29., 0., 0., 11., 36., 25., 41., 14.,
          5., 3., 1., 9., 7., 45., 9., 38., 124., 23., 0., 0., 21., 12.,
          3., 94., 126., 40., 0., 0., 120., 106., 5., 4., 3., 1., 0., 0.,
          25., 45., 29., 18., 4., 0., 0., 0., 6., 0., 0., 0., 29., 53.,
          24., 17., 5., 3., 0., 0., 100., 114., 5., 7., 135., 51., 0.,
          0., 13., 10., 2., 96., 109., 22., 0., 0., 3., 46., 15., 31.,
          3., 3., 1., 6., 38., 34., 44., 18., 35., 0., 0., 3., 135., 74.,
          5., 10., 135., 4., 1., 1., 29., 4., 1., 131., 62., 29., 10.,
          3., 0., 1., 2., 39., 8., 18., 4., 35., 43., 1., 0., 1., 29.,
          4., 0., 39., 135., 26., 0., 5., 135., 101., 49., 5., 28., 9.,
          0., 9., 33., 76., 89., 16., 0., 0., 0., 0., 5., 25., 10., 17.,
          28., 4., 1., 2., 1., 2., 1., 26., 111., 59., 0., 0., 11., 54.,
          59., 9., 51., 33., 8., 22., 86., 57., 53., 1., 0., 0., 2., 40.,
          0., 1., 8., 35., 94., 26., 1., 0., 1., 1., 0., 46., 115., 19.,
          14., 3., 38., 17., 2., 7., 20., 7., 30., 11., 8., 5., 2., 33.,
          42., 1., 1., 4., 3., 9., 57., 115., 73., 6., 3., 2., 78., 7.,
          4., 98., 80., 13., 59., 82., 16., 3., 1., 14., 98., 82., 115.,
          39., 12., 0., 0., 14., 77., 11., 4., 40., 12., 3., 24., 102.,
          102., 10., 9., 13., 115., 45., 19., 29., 40., 10., 17., 61.,
          21., 20., 30., 115., 115., 16., 5., 8., 85., 0., 0., 21., 50.,
          2., 2., 95., 54., 14., 27., 56., 7., 1., 1., 11., 67., 33., 7.,
          12., 37., 23., 14., 34., 6., 2., 8., 48., 85., 45., 3., 4.,
          115., 14., 1., 7., 4., 5., 2., 38., 10., 11., 20., 47., 20.,
          0., 0., 5., 134., 33., 46., 35., 6., 0., 0., 12., 73., 3., 1.,
          60., 73., 1., 0., 12., 1., 2., 2., 28., 33., 26., 5., 1., 23.,
          2., 3., 95., 86., 0., 0., 4., 144., 14., 7., 32., 29., 0., 0.,
          23., 77., 2., 6., 44., 127., 7., 3., 7., 4., 1., 7., 60., 34.,
          4., 4., 4., 33., 1., 0., 51., 121., 7., 0., 5., 144., 12., 1.,
          10., 26., 2., 0., 10., 58., 5., 20., 79., 144., 2., 0., 1.,
          27., 1., 36., 68., 17., 0., 0., 32., 17., 1., 0., 9., 103.,
          14., 4., 11., 144., 9., 0., 0., 20., 6., 5., 43., 45., 1., 1.,
          6., 144., 54., 4., 8., 63., 0., 2., 3., 21., 11., 6., 76., 15.,
          22., 21., 33., 14., 2., 8., 16., 25., 8., 2., 25., 44., 9.,
          20., 38., 137., 9., 2., 10., 24., 2., 0., 10., 24., 0., 0., 0.,
          137., 13., 0., 3., 56., 76., 15., 3., 2., 1., 17., 26., 57.,
          50., 16., 104., 90., 15., 5., 16., 137., 62., 12., 27., 25.,
          4., 1., 9., 35., 2., 0., 0., 137., 14., 0., 2., 14., 14., 18.,
          6., 2., 3., 50., 52., 31., 22., 13., 16., 101., 99., 18., 41.,
          137., 11., 1., 4., 27., 27., 12., 68., 37., 0., 0., 2., 137.,
          17., 0., 5., 3., 30., 32., 29., 17., 8., 1., 1., 35., 84., 28.,
          19., 38., 13., 7., 12., 137., 8., 2., 11., 24., 5., 10., 41.,
          23., 1., 1., 98., 123., 1., 0., 2., 11., 17., 4., 15., 89.,
          17., 0., 7., 77., 72., 4., 3., 3., 7., 6., 33., 18., 16., 9.,
          41., 82., 44., 6., 13., 22., 1., 1., 4., 21., 8., 31., 102.,
          52., 3., 1., 41., 111., 6., 1., 17., 111., 22., 5., 8., 21.,
          27., 27., 105., 51., 13., 9., 50., 111., 63., 15., 25., 111.,
          26., 10., 8., 6., 3., 18., 77., 73., 14., 3., 47., 44., 0., 0.,
          1., 111., 81., 99., 40., 16., 4., 2., 6., 104., 15., 63., 82.,
          77., 11., 2., 52., 111., 8., 1., 1., 2., 2., 32., 111., 51.,
          3., 1., 13., 5., 1., 1., 15., 20., 6., 27., 13., 29., 25., 3.,
          8., 111., 36., 19., 6., 5., 5., 1., 6., 111., 55., 3., 0., 0.,
          0., 0., 9., 15., 23., 7., 3., 12., 64., 42., 6., 63., 13., 2.,
          7., 33., 71., 11., 39., 73., 19., 6., 19., 2., 1., 17., 106.,
          0., 0., 12., 64., 6., 7., 48., 15., 58., 73., 25., 11., 14.,
          18., 15., 26., 49., 49., 7., 22., 69., 112., 21., 12., 119.,
          104., 9., 11., 6., 10., 11., 57., 16., 2., 3., 13., 3., 8.,
          118., 71., 109., 104., 15., 4., 6., 9., 9., 20., 37., 47., 44.,
          89., 98., 86., 15., 9., 119., 119., 6., 16., 24., 11., 1., 26.,
          39., 67., 26., 0., 0., 0., 6., 18., 23., 67., 15., 6., 21., 3.,
          0., 0., 9., 28., 42., 73., 15., 20., 5., 1., 46., 119., 8.,
          11., 2., 7., 2., 1., 26., 119., 17., 0., 0., 0., 0., 0., 56.,
          68., 4., 2., 2., 6., 4., 19., 17., 20., 8., 35., 77., 58., 8.,
          10., 46., 4., 2., 6., 25., 13., 26., 119., 2., 0., 10., 6., 0.,
          8., 92., 55., 116., 27., 3., 3., 7., 13., 16., 77., 44., 18.,
          8., 44., 118., 86., 20., 27., 119., 49., 8., 12., 19., 7., 14.,
          87., 8., 6., 36., 33., 2., 31., 72., 22., 113., 73., 49., 17.,
          5., 2., 1., 6., 71., 30., 83., 103., 87., 20., 3., 18., 119.,
          22., 2., 6., 13., 2., 15., 119., 13., 10., 3., 0., 0., 31.,
          83., 38., 35., 10., 16., 9., 12., 15., 2., 7., 73., 29., 31.,
          17., 13., 16., 1., 2., 119., 115., 3., 0., 0., 0., 0., 3., 24.,
          42., 8., 0., 0., 1., 0., 2., 111., 70., 7., 2., 7., 6., 2., 7.,
          18., 62., 70., 8., 7., 17., 10., 3., 2., 55., 133., 8., 2.,
          15., 26., 1., 23., 68., 29., 3., 1., 6., 27., 15., 52., 133.,
          40., 7., 39., 15., 1., 3., 133., 118., 32., 4., 6., 46., 61.,
          31., 23., 31., 37., 2., 6., 133., 133., 16., 27., 86., 20., 2.,
          3., 31., 50., 24., 53., 21., 7., 2., 82., 66., 8., 43., 133.,
          40., 2., 0., 0., 4., 9., 104., 80., 9., 1., 1., 42., 104., 43.,
          12., 1., 0., 0., 2., 21., 72., 52., 9., 26., 0., 0., 0., 38.,
          35., 2., 19., 102., 0., 0., 0., 0., 0., 0., 40., 18., 0., 0.,
          0., 4., 8., 0., 3., 0., 0., 0., 0., 2., 7., 2., 0., 13., 5.,
